{
  "Note": "",
  "Valid_Loss": 2.176444106032334,
  "Schema": "[Dense,Dense,Dense,Dense,Dense]",
  "Current_epoch": 90000,
  "Target_epoch": 90000,
  "Mini_batch": 5,
  "Loss_functions": "MSE",
  "Optimizer": {
    "Name": "Adam",
    "Hyperparameters": [
      0.001,
      0.9,
      0.999
    ]
  },
  "Layers": [
    {
      "Name_of_activation_function": "Leak_ReLu",
      "Neurons": [
        {
          "Weights": [
            0.1565106958356293,
            -0.16586232700440603
          ],
          "Bias": -0.29907732301587125
        },
        {
          "Weights": [
            0.20448958965139616,
            0.3289911599498299
          ],
          "Bias": -0.07602646342383493
        },
        {
          "Weights": [
            0.10952021721785385,
            0.043470763322727125
          ],
          "Bias": -0.3150836138096728
        },
        {
          "Weights": [
            0.01573168744459607,
            -0.16360531222065536
          ],
          "Bias": -0.5160337347887628
        },
        {
          "Weights": [
            0.12194736001029158,
            -0.2727421104002412
          ],
          "Bias": -0.5406696113232614
        },
        {
          "Weights": [
            -0.16696533135456154,
            0.17815630874235402
          ],
          "Bias": -0.15264634610991598
        },
        {
          "Weights": [
            -0.1822276128495975,
            0.07146620022580168
          ],
          "Bias": -0.21560622491650278
        },
        {
          "Weights": [
            0.12591159124397922,
            -0.20748283627831038
          ],
          "Bias": -0.3260601201328847
        },
        {
          "Weights": [
            -0.19032974058323626,
            0.12328973133294938
          ],
          "Bias": -0.21248774057871364
        },
        {
          "Weights": [
            -0.21635568059452215,
            -0.2378064035620911
          ],
          "Bias": -0.6725289216896814
        },
        {
          "Weights": [
            -0.31879484000042324,
            -0.4067887174596974
          ],
          "Bias": -0.49504333996205996
        },
        {
          "Weights": [
            -0.27653721925172486,
            0.21718296350700306
          ],
          "Bias": -0.2707801137088263
        },
        {
          "Weights": [
            -0.5193513471932877,
            -0.5390004501293977
          ],
          "Bias": -0.9065354145934418
        },
        {
          "Weights": [
            -0.1635525964711205,
            0.23238565522764137
          ],
          "Bias": -0.285454262101643
        },
        {
          "Weights": [
            -0.13439458058910322,
            -0.06923195560461828
          ],
          "Bias": -0.3286121191410819
        },
        {
          "Weights": [
            -0.3540799561800363,
            -0.3430257756757584
          ],
          "Bias": -0.42175523857415
        },
        {
          "Weights": [
            0.008038107712118594,
            0.16510020013476218
          ],
          "Bias": -0.23873589312824045
        },
        {
          "Weights": [
            -0.011857568242417075,
            0.05767262471073278
          ],
          "Bias": -0.2642598733583437
        },
        {
          "Weights": [
            0.05522230206429793,
            -0.009884843376891267
          ],
          "Bias": -0.2817186402473508
        },
        {
          "Weights": [
            0.029415319796280818,
            0.044347621199225765
          ],
          "Bias": -0.39417794137371814
        },
        {
          "Weights": [
            0.011547246183554702,
            0.1115914965375819
          ],
          "Bias": -0.12844755032058983
        },
        {
          "Weights": [
            0.030020976413421524,
            0.03514920829525074
          ],
          "Bias": -0.32292220074664135
        },
        {
          "Weights": [
            0.20090273441446302,
            -0.011031152388154108
          ],
          "Bias": -0.10139195249734526
        },
        {
          "Weights": [
            0.12262392450933238,
            -0.03534983356964997
          ],
          "Bias": -0.20032549202657052
        },
        {
          "Weights": [
            0.13339935485301038,
            -0.05324108345564377
          ],
          "Bias": -0.26515696216092477
        },
        {
          "Weights": [
            -0.015092046099614138,
            0.06912129529012084
          ],
          "Bias": -0.13610148364919492
        },
        {
          "Weights": [
            0.013225065367806096,
            0.2785000545881792
          ],
          "Bias": -0.17514153660847573
        },
        {
          "Weights": [
            0.009979172297804931,
            -0.2399084250967086
          ],
          "Bias": -0.3223853220877989
        },
        {
          "Weights": [
            -0.05274913929285085,
            -0.06851444857842688
          ],
          "Bias": -0.34065672928150453
        },
        {
          "Weights": [
            -0.01985348559328165,
            -0.05568993802585405
          ],
          "Bias": -0.3962210072714535
        },
        {
          "Weights": [
            -0.07252788162129614,
            -0.024824600036283468
          ],
          "Bias": -0.2381893928921948
        },
        {
          "Weights": [
            0.023211938707000807,
            0.04192309731611018
          ],
          "Bias": -0.38952877979403233
        }
      ],
      "LayerType": "Dense"
    },
    {
      "Name_of_activation_function": "Leak_ReLu",
      "Neurons": [
        {
          "Weights": [
            -0.2891968550053521,
            -0.3341505308532136,
            -0.26906463533878,
            -0.21931533931150496,
            -0.23036291626691244,
            -0.2738739026735327,
            -0.25053663297307965,
            -0.2797122410350354,
            -0.268287376157375,
            -0.21538015268489893,
            -0.19678672437237127,
            -0.23022516625007147,
            -0.18427331043977108,
            -0.16415488541277676,
            -0.15578707110132525,
            -0.11816244518043632,
            -0.0680905178216557,
            -0.05600080316666742,
            -0.03688023597063185,
            0.009014675818582627,
            0.02694410374879428,
            0.0814702089265028,
            0.01858976417444636,
            -0.0033607993774141835,
            -0.0523856336576394,
            -0.053638543733972074,
            0.03173524692768073,
            -0.08377840798841191,
            -0.04587290741367844,
            -0.04190560973245818,
            -0.005166860137413819,
            0.04128443940541586
          ],
          "Bias": -0.24668948086439857
        },
        {
          "Weights": [
            -0.26552020073281646,
            -0.3126959447076407,
            -0.2322376298831167,
            -0.18927245370177814,
            -0.20199791545144882,
            -0.2417289370947465,
            -0.21393146497274895,
            -0.24589498369633642,
            -0.2487966993013551,
            -0.20276448770815594,
            -0.17282754720800103,
            -0.19037530297034508,
            -0.14344270692424907,
            -0.14325410683643178,
            -0.10404281774631256,
            -0.08212062160990018,
            -0.044909557713142936,
            0.0006979369353813178,
            -0.004600969216863157,
            0.058211361789120175,
            0.0647295729558141,
            0.10675925353554355,
            0.061026404778349884,
            0.01409368371686112,
            -0.031926381868378546,
            -0.00499629226809815,
            0.048995463921947195,
            -0.04766943515030639,
            -0.019393692559856648,
            0.006411509643431807,
            0.026463217432821564,
            0.05337067538496457
          ],
          "Bias": -0.22094660558556695
        },
        {
          "Weights": [
            -0.2509868226710394,
            -0.3062722792235042,
            -0.23501691682102369,
            -0.20301660425084408,
            -0.19173357591663662,
            -0.23438322496487407,
            -0.2088734815755765,
            -0.21319981714530062,
            -0.19991792223049712,
            -0.17130966215091856,
            -0.14133380613290877,
            -0.164433674989835,
            -0.09541372224674069,
            -0.10469503304411558,
            -0.06873607842506113,
            -0.0636450867388264,
            -0.02655240320999996,
            0.01535608060229277,
            0.01044337329396199,
            0.08040223090549518,
            0.08623057259838199,
            0.13151827876618302,
            0.06798465576808184,
            0.020135447942191954,
            -0.003523779328094711,
            -0.006159449132816528,
            0.054368875931286975,
            -0.024121566110857143,
            -0.0013361123247595246,
            0.02777613413991713,
            0.042869679566773004,
            0.07923280720585353
          ],
          "Bias": -0.21819512964992682
        },
        {
          "Weights": [
            -0.15752230058240224,
            -0.16303545639610204,
            -0.10420872822356723,
            -0.06403191050764416,
            -0.10002128611270551,
            -0.13349405486231167,
            -0.11871622381661837,
            -0.11596323718312194,
            -0.13520438350680158,
            -0.10109817068440557,
            -0.08807831671925112,
            -0.09523727193701491,
            -0.027787248194737466,
            -0.004027062010916456,
            0.030079572668509538,
            0.0290834666952601,
            0.06613832626709165,
            0.08783120929705993,
            0.08880694309027791,
            0.1319706072870216,
            0.14442856471123355,
            0.19597243054632113,
            0.1319754286066772,
            0.10395952092514453,
            0.07756070937364636,
            0.08707760075042817,
            0.16176137876580526,
            0.06298832581493208,
            0.06772512958494853,
            0.0743674958340749,
            0.06620624507167595,
            0.13263557609564597
          ],
          "Bias": -0.10825027831137167
        },
        {
          "Weights": [
            -0.30452928472230173,
            -0.45205657018793255,
            -0.3903733467512992,
            -0.33743136042317906,
            -0.3118921898258911,
            -0.34846406769627575,
            -0.31132756759914487,
            -0.31303940993057017,
            -0.2990290793975696,
            -0.22308763374189833,
            -0.19953044650288967,
            -0.21035817645361352,
            -0.16152584877229,
            -0.15400244359884566,
            -0.12090851922936875,
            -0.07739862053748905,
            -0.06226967812311351,
            -0.04564194970197194,
            -0.027931736452140116,
            0.015582961659126718,
            0.024974803826648826,
            0.06971649111262092,
            -0.03275999712018626,
            -0.05322944830753195,
            -0.08653908292141808,
            -0.08159988650993864,
            -0.04513408553797167,
            -0.10698812380032616,
            -0.10056704293939545,
            -0.0743341063857716,
            -0.041498737174088945,
            0.0295998603655198
          ],
          "Bias": -0.2878799433239644
        },
        {
          "Weights": [
            -0.3970712833853967,
            -0.6100355315209849,
            -0.5724066631580749,
            -0.47677734617980033,
            -0.4595890771683941,
            -0.4872858382558431,
            -0.43721432615861683,
            -0.4279342185163197,
            -0.4111937132095579,
            -0.33422798292872874,
            -0.2911528388523836,
            -0.28436956940169594,
            -0.2184502639122888,
            -0.17244044859077243,
            -0.1422709165463243,
            -0.10830718717342305,
            -0.12470097368857028,
            -0.10173879158496654,
            -0.06723924246407822,
            -0.019254020597754485,
            -0.05505111530966053,
            -0.0003816425441647234,
            -0.09665637964187844,
            -0.13588551978662605,
            -0.16692888041344728,
            -0.1681684722201105,
            -0.18680974795949903,
            -0.25368634496510534,
            -0.1992929385991285,
            -0.16861949346878602,
            -0.13165001671477752,
            -0.08376314874787658
          ],
          "Bias": -0.35373858352105997
        },
        {
          "Weights": [
            -0.38141510045498495,
            -0.6240991360110543,
            -0.5703206307256412,
            -0.47305263228109856,
            -0.44863910470052787,
            -0.46061793064376344,
            -0.42746873784559763,
            -0.4153563989135428,
            -0.38478372684506823,
            -0.31883910308863106,
            -0.2716803498873826,
            -0.2582806665728732,
            -0.20655374367033238,
            -0.1675086320282556,
            -0.13887019289368152,
            -0.08814934655819993,
            -0.11875008757221998,
            -0.06516138360985324,
            -0.05576947710118888,
            0.0021441529831768375,
            -0.016060355529805084,
            0.026236708416027064,
            -0.08553978705912564,
            -0.1509113714083149,
            -0.1628134587935877,
            -0.15711405034147558,
            -0.17286881357514883,
            -0.22321116135539418,
            -0.1806443834412144,
            -0.14297506498880488,
            -0.1202783309042055,
            -0.056784250893141625
          ],
          "Bias": -0.3542855532305001
        },
        {
          "Weights": [
            -0.23356397241160495,
            -0.3471932536748652,
            -0.29179278903197015,
            -0.2449577867153647,
            -0.2399343382860238,
            -0.2741709540669605,
            -0.22836210589631345,
            -0.2357215072932079,
            -0.2166381633797669,
            -0.1703432577612448,
            -0.16947914443793255,
            -0.15606082650889902,
            -0.1107653150395647,
            -0.0660975056115107,
            -0.04006681184869279,
            -0.019587535261558507,
            -0.021733613559100064,
            0.03832833935677529,
            0.017908138933272807,
            0.074602066328765,
            0.07849552821060739,
            0.12475680101869427,
            0.03686403622007069,
            0.007157911091765509,
            -0.01303476197743229,
            -0.023251987855362016,
            0.01731901001600892,
            -0.05860363262862096,
            -0.04505843960516982,
            -0.018064685448077544,
            0.010299316165342085,
            0.07038692337041169
          ],
          "Bias": -0.20779521303562812
        },
        {
          "Weights": [
            -0.1924423420524123,
            -0.266101026254335,
            -0.18412283596783696,
            -0.12336315119816792,
            -0.14365988288642567,
            -0.19138120167552258,
            -0.16648937319297716,
            -0.16755707148657858,
            -0.16784650140546944,
            -0.12324395274477007,
            -0.105642103597536,
            -0.10815791420356984,
            -0.046808349518461766,
            -0.026388071605513833,
            0.008162381670496675,
            0.0016130054165179979,
            0.035459843894223596,
            0.06227974954788079,
            0.0722192054031013,
            0.12730308848950952,
            0.1323325636209869,
            0.1614653675542864,
            0.10086021315974442,
            0.07375832391266636,
            0.04858638644144708,
            0.05964989028815503,
            0.11024093182630919,
            0.012646385665977347,
            0.028046314543341836,
            0.03306196244885036,
            0.04357074406843796,
            0.11900889966113605
          ],
          "Bias": -0.1546776025725176
        },
        {
          "Weights": [
            -0.13143851468941986,
            -0.09610811411708199,
            -0.031054778271057452,
            0.008629562658525314,
            -0.062264936079897686,
            -0.10304819207521419,
            -0.0683509232820678,
            -0.10689305806419591,
            -0.1265084257012512,
            -0.08667485641349837,
            -0.06175582294022728,
            -0.07210205563984641,
            -0.04243347546509718,
            0.001019019562361896,
            0.023483469869370548,
            0.04052090156588023,
            0.07941621777177005,
            0.10660373281889834,
            0.11412137193208945,
            0.17375758929297966,
            0.1755516072318962,
            0.19676792658441508,
            0.16292678213063763,
            0.15097595463842878,
            0.09048621501526925,
            0.10184328312009654,
            0.18531888574970307,
            0.06599336341087632,
            0.08969028212920027,
            0.10608990947788081,
            0.10796297327623398,
            0.13041291439616076
          ],
          "Bias": -0.06533581746129158
        },
        {
          "Weights": [
            -0.10872170946169277,
            -0.10744745772104501,
            -0.029612382351841767,
            0.005037842520145663,
            -0.05148912955354976,
            -0.10264960854669065,
            -0.07935031906056736,
            -0.11051787044488692,
            -0.10297836867014028,
            -0.08920833369057524,
            -0.04720027426400851,
            -0.07802559930501114,
            -0.039148485497101246,
            -0.008754114114587779,
            0.01606975368592692,
            0.04273066498903006,
            0.09367839434169814,
            0.10124228828059552,
            0.12242215358870587,
            0.14943945869453507,
            0.1838157144728352,
            0.19962636309065493,
            0.15896602556808795,
            0.15108907532693325,
            0.08771399916806527,
            0.1031397435138981,
            0.19835252091026503,
            0.08738215822954072,
            0.10157469394538025,
            0.08896791929106655,
            0.11368501525466324,
            0.15375912057574298
          ],
          "Bias": -0.07009738109647443
        },
        {
          "Weights": [
            -0.13813437255671862,
            -0.15540249856163227,
            -0.08717612600802992,
            -0.034488772395135585,
            -0.07501746397901386,
            -0.09581128783492412,
            -0.09933747140972007,
            -0.09616075264841915,
            -0.09941797528746277,
            -0.06547684455568957,
            -0.05905111318867601,
            -0.08013558162202637,
            -0.0006644199633584167,
            0.006994077495597873,
            0.04566262187001993,
            0.035262539473724715,
            0.0749076307397479,
            0.1215926372353379,
            0.10926651483600493,
            0.16864094836420143,
            0.17320810892841101,
            0.20985995871795435,
            0.15509111360854513,
            0.14041075405076367,
            0.10992222915208949,
            0.11852327205400524,
            0.17373799554057762,
            0.09937475488996501,
            0.09267795858521123,
            0.10126441527855523,
            0.09811362052908575,
            0.14196050154803808
          ],
          "Bias": -0.10241872574396396
        },
        {
          "Weights": [
            -0.23042819273508058,
            -0.3132096755970016,
            -0.24366981293467893,
            -0.18168176297982028,
            -0.1962954123292416,
            -0.2215610541568199,
            -0.18659206492559818,
            -0.20427775166901116,
            -0.18153413096889923,
            -0.1355593488220308,
            -0.13531382995244606,
            -0.1259543038032424,
            -0.08659855117095902,
            -0.09066578338476929,
            -0.05261237540415345,
            -0.0438713351468778,
            0.007832736150549545,
            0.04288141664567388,
            0.04174544994455724,
            0.10570894305602475,
            0.11625960137685135,
            0.16210388638973064,
            0.07565354949962806,
            0.04250250323467319,
            0.03869821914773244,
            0.04810850435870409,
            0.08057065659973824,
            0.007820134377461228,
            0.034065829183478676,
            0.03456404521898628,
            0.058595883414432344,
            0.11635597627125227
          ],
          "Bias": -0.20004347588987895
        },
        {
          "Weights": [
            -0.12483747455146456,
            -0.14654938419392782,
            -0.062078167006375126,
            -0.017490407850974537,
            -0.04039297152659423,
            -0.0980167155531723,
            -0.064329936823948,
            -0.1108233801073452,
            -0.11446379972170805,
            -0.08234727534895034,
            -0.04922078495513886,
            -0.08516681238289613,
            -0.024839210191132596,
            0.01716362637065705,
            0.04399922078355721,
            0.05745363534803971,
            0.10598639009918052,
            0.12536910467413007,
            0.11680151010398335,
            0.15888872608632815,
            0.19305266230572396,
            0.2058333634401629,
            0.1840153469515566,
            0.1454420015558406,
            0.12311283756011086,
            0.11047939061255796,
            0.20059251925813867,
            0.08183729267791252,
            0.09413881725631007,
            0.09501349248372387,
            0.11574538516257118,
            0.1620054323292893
          ],
          "Bias": -0.08969635110615444
        },
        {
          "Weights": [
            -0.12216250636573021,
            -0.11614505375609098,
            -0.04735701458609625,
            -0.007957570619295641,
            -0.035497282660571484,
            -0.08947681564906985,
            -0.07875851363280023,
            -0.08875370562698683,
            -0.11982589900097475,
            -0.059254805263434226,
            -0.06987679668874752,
            -0.07939506986765932,
            -0.036255554314856206,
            0.013029555747559245,
            0.0269301454858473,
            0.01909604463086012,
            0.08632229732893405,
            0.11001483722731432,
            0.11740006271669454,
            0.17075548644762803,
            0.1613624415503391,
            0.2204117291823569,
            0.15873405597095178,
            0.14148580662879762,
            0.1206022780423601,
            0.13404336351544666,
            0.2007928378226411,
            0.08911976078605795,
            0.09159253668139615,
            0.11069515565030774,
            0.10030904748304557,
            0.1585167510399994
          ],
          "Bias": -0.08017057036984054
        },
        {
          "Weights": [
            -0.12839870813562765,
            -0.10500829195016462,
            -0.03845095802500353,
            -0.003587306481111758,
            -0.03746450646553312,
            -0.0758336226442433,
            -0.06746975040829116,
            -0.11173118186729586,
            -0.11678831385624323,
            -0.06876725260670917,
            -0.05122430946888137,
            -0.09054454194717032,
            -0.04165167009415067,
            -0.002911204412124833,
            0.034698521848732594,
            0.029751884939869154,
            0.08247177451004833,
            0.11629534223274775,
            0.10727676084542928,
            0.1551171985936922,
            0.1924338782324401,
            0.2224921724138286,
            0.1798449333733687,
            0.13515681361416043,
            0.10096214134890019,
            0.11553589163988012,
            0.1870253923951614,
            0.07516531719601101,
            0.09555327897538722,
            0.08495040289498595,
            0.10059475243576535,
            0.1455805774695195
          ],
          "Bias": -0.07559513625432387
        },
        {
          "Weights": [
            -0.12579027285256786,
            -0.12039551980185081,
            -0.02715073231127598,
            -0.005055284533059083,
            -0.04960301661068408,
            -0.09202919532556957,
            -0.07124920080420293,
            -0.0964886568606844,
            -0.10101814716864305,
            -0.07084168102646873,
            -0.05176976610880185,
            -0.0895639421604013,
            -0.02512234091810753,
            -0.006506761994826528,
            0.032301765656525615,
            0.03942835600867993,
            0.07685065385910515,
            0.12417604960880133,
            0.1156488484791124,
            0.16024652284620916,
            0.19360112617454484,
            0.2059575491269691,
            0.16418055339124513,
            0.14672932111911263,
            0.11991895272838181,
            0.10684248539308835,
            0.21756686006056736,
            0.10115015881950197,
            0.10914455963592531,
            0.09819045302829973,
            0.10524915753874348,
            0.15377217089187858
          ],
          "Bias": -0.07077537101745147
        },
        {
          "Weights": [
            -0.117365620788752,
            -0.21386004228986472,
            -0.1578908908483452,
            -0.09776115225844628,
            -0.06415096850502544,
            -0.0917338275182767,
            -0.07283238919020693,
            -0.07574918407101935,
            -0.0687182195220786,
            -0.03136881374086283,
            -0.008955991147512336,
            -0.02594537544462323,
            0.025105209144378277,
            0.06207831639375734,
            0.08828096075304875,
            0.07763333138051663,
            0.10344052227372512,
            0.14346305069538542,
            0.16896297170403526,
            0.2136315305521358,
            0.1946521811058306,
            0.24971891178350952,
            0.17301727069253034,
            0.15204036610706337,
            0.12374928390442168,
            0.12720651923137807,
            0.18991332592331886,
            0.11511067015890486,
            0.1228975152400312,
            0.1489957321894393,
            0.154194270097563,
            0.1977868741549624
          ],
          "Bias": -0.11967843181130443
        },
        {
          "Weights": [
            -0.14019315375117175,
            -0.0898822428711602,
            -0.03443709651812907,
            0.008829636830823082,
            -0.05309016166845444,
            -0.08573207971620467,
            -0.08101713046356991,
            -0.12559099725151315,
            -0.14353696343888228,
            -0.09429181669248245,
            -0.07707003697378478,
            -0.1014213312776839,
            -0.05992113159236857,
            -0.0013112973939787172,
            0.023352377525478425,
            0.011578651224595954,
            0.0759548881302935,
            0.1265615665920564,
            0.10966452471453723,
            0.1673021910765859,
            0.18519599558989958,
            0.2144356134660881,
            0.1837129053326911,
            0.1350198652695245,
            0.09091663527796591,
            0.11471318246414883,
            0.19402299212136942,
            0.09062098778580648,
            0.08835559684236424,
            0.09775591423833739,
            0.10551927692027104,
            0.15034494326871167
          ],
          "Bias": -0.06701661663152715
        },
        {
          "Weights": [
            -0.1216173915081824,
            -0.08666919964171194,
            -0.026484327537694214,
            -0.0023187519561065333,
            -0.05259664289455308,
            -0.09228813422883528,
            -0.08315698324213486,
            -0.126214114083651,
            -0.12999430476654267,
            -0.08789683077444012,
            -0.06713061298084305,
            -0.1094793447821697,
            -0.061248584400009354,
            -0.013351627766970117,
            0.01205218779297532,
            0.011947418825883337,
            0.07471938481080456,
            0.10036506811881912,
            0.10249006898207078,
            0.1423966129657314,
            0.1655671212495009,
            0.2134382162027376,
            0.16866318447954554,
            0.13586815682169762,
            0.08709618036415025,
            0.12323592000686578,
            0.21118863411707772,
            0.07958237086585981,
            0.08126319695787328,
            0.10089345758493784,
            0.11232551885973888,
            0.1482336956667217
          ],
          "Bias": -0.06230511505887054
        },
        {
          "Weights": [
            -0.11714784010068245,
            -0.09478360318993866,
            -0.045654611814426094,
            0.0074641900059258465,
            -0.03139862101433987,
            -0.08990266594784421,
            -0.09455803611032122,
            -0.11986623847469764,
            -0.11330450711690856,
            -0.07897634690538159,
            -0.08804192562168461,
            -0.10229000448401009,
            -0.03776783541532179,
            0.0030803372758807157,
            -0.0014128821145286746,
            0.025009478703949414,
            0.08616583165578083,
            0.12063101271218446,
            0.10782509796985268,
            0.17219113100477262,
            0.17585321463854103,
            0.2196364943023973,
            0.16556910291660074,
            0.1359772216297166,
            0.10080950816264742,
            0.1244019191153107,
            0.19149563462141084,
            0.08321191739602998,
            0.10420394352943005,
            0.09462026900203456,
            0.11034099819632895,
            0.14276119417213967
          ],
          "Bias": -0.0703939388278867
        },
        {
          "Weights": [
            -0.16523713563261302,
            -0.22251201705221407,
            -0.1356069475601759,
            -0.07742403770853087,
            -0.09180023731531375,
            -0.11818396588539591,
            -0.09271512482485704,
            -0.108501492627071,
            -0.10594716809075039,
            -0.07732184060076608,
            -0.05943568204109822,
            -0.06598902911372413,
            -0.009464914879100067,
            0.012885296754623727,
            0.060611560371115245,
            0.053425729914674515,
            0.09386954151407972,
            0.12667427936541892,
            0.13359193280501125,
            0.17828218395051404,
            0.164399121061947,
            0.19913955219333712,
            0.14096888078476022,
            0.13576046123887353,
            0.1135092674465042,
            0.11840801106922545,
            0.15508125764441455,
            0.07285476978038836,
            0.09223510098991278,
            0.11273521332889448,
            0.11941338888802724,
            0.17004840008914354
          ],
          "Bias": -0.12810926719397625
        },
        {
          "Weights": [
            -0.13871661297259652,
            -0.17861453256333604,
            -0.10923991949362695,
            -0.06050067336118969,
            -0.06923556663422503,
            -0.1149155858520176,
            -0.0877357836614464,
            -0.11862479545458172,
            -0.11223773659648743,
            -0.07150818551635996,
            -0.06081959963622057,
            -0.08426654502668143,
            -0.01133432798174021,
            0.016174834228127155,
            0.057944743318576804,
            0.05197746845001706,
            0.08559070683159253,
            0.12842756465714325,
            0.12458728212737012,
            0.16449455365619958,
            0.16934960847530262,
            0.19898615344182802,
            0.15837448721090405,
            0.15117679826724395,
            0.11985486576893274,
            0.1241988733848913,
            0.1663117299260185,
            0.08519569120492206,
            0.08071085610122065,
            0.08852052332317428,
            0.10644397759704076,
            0.15326707062484918
          ],
          "Bias": -0.12014043978492961
        },
        {
          "Weights": [
            -0.17251000273542383,
            -0.23386409491504304,
            -0.17914772871054868,
            -0.10824013297285537,
            -0.1279874263652663,
            -0.141939914537262,
            -0.124700580530067,
            -0.12874984113220153,
            -0.12407114754527161,
            -0.09924133168944231,
            -0.07189287429421191,
            -0.09653315076472394,
            -0.045708592890184314,
            -0.012489055055514085,
            0.007200113352292738,
            0.028191350739599837,
            0.043765301867262144,
            0.07651150780012712,
            0.09444708850292409,
            0.14322089502120547,
            0.1641137265852671,
            0.19538387739770016,
            0.13582219562310194,
            0.10405103043166399,
            0.06549670690430194,
            0.07030839381478358,
            0.12421668650825086,
            0.04324767911993082,
            0.06274245996242754,
            0.08832820666279276,
            0.08590307713979904,
            0.12974276348334282
          ],
          "Bias": -0.15870487009640788
        },
        {
          "Weights": [
            -0.16874279965426625,
            -0.25805199105441384,
            -0.1831054816410656,
            -0.11514052733743609,
            -0.13645733989250577,
            -0.13314044248438986,
            -0.10843212905532222,
            -0.10978732039733871,
            -0.10904942488837027,
            -0.06699707386479514,
            -0.04368122046203941,
            -0.07820105001397692,
            0.0006964650506089292,
            -0.021037102750212894,
            0.021125454220668288,
            0.03420693180669708,
            0.06876570249714825,
            0.10649717377947088,
            0.11001542237802608,
            0.15103961657600418,
            0.17427108295246688,
            0.18342118153174264,
            0.12485801605586411,
            0.12033711127067001,
            0.07965572381701255,
            0.09240822251770418,
            0.1354609663100567,
            0.062160440147578794,
            0.07079362644128988,
            0.09807170942535842,
            0.11748434413793277,
            0.1700599485192286
          ],
          "Bias": -0.16605692633556635
        },
        {
          "Weights": [
            -0.23131974812684566,
            -0.23908013331206074,
            -0.16975918016117358,
            -0.11618108936816963,
            -0.1383910749231164,
            -0.18783506820326842,
            -0.17150289155673906,
            -0.1971913141191783,
            -0.20678317833656853,
            -0.16710442630104766,
            -0.1371114945632537,
            -0.1946611438125824,
            -0.14229182643383395,
            -0.11469360191710341,
            -0.0856918127299772,
            -0.08424072061599264,
            -0.005400535225578006,
            0.0186578578146109,
            0.03434503119365089,
            0.0742834801279348,
            0.08795516466036483,
            0.14104074625021998,
            0.09068681559497044,
            0.058549597190707646,
            0.03141960209410612,
            0.04749202732234718,
            0.12538605748967946,
            0.0041603254295538745,
            0.008929359039832378,
            0.02172400184451647,
            0.037811199060952004,
            0.10170564639301914
          ],
          "Bias": -0.1750602009496281
        },
        {
          "Weights": [
            -0.13791422831950845,
            -0.09868925308278993,
            -0.006993194790029952,
            0.021236831545794106,
            -0.04405117243634893,
            -0.08125095180445138,
            -0.06684250831450432,
            -0.11370191710719255,
            -0.13299726766600384,
            -0.10176446178454043,
            -0.07398952081770556,
            -0.10399710418369891,
            -0.041054816479733976,
            0.0010312183087658458,
            0.013038629478884527,
            0.011539190689442135,
            0.09309748400020422,
            0.12311364687765902,
            0.10213613084885134,
            0.1708233232787549,
            0.19357857945693174,
            0.21500589337872084,
            0.18816437747468473,
            0.13637901186108956,
            0.09019786336314496,
            0.10110374933228233,
            0.19821602860679627,
            0.0928176856292471,
            0.10515365738685667,
            0.11315178075511015,
            0.11653756222386583,
            0.16904326880192466
          ],
          "Bias": -0.06460581449442526
        },
        {
          "Weights": [
            -0.1424657432065021,
            -0.1051541347068107,
            -0.023955372344872158,
            0.0021878784634689888,
            -0.03658477708707733,
            -0.10813014366188942,
            -0.07623867786355555,
            -0.11153489570696322,
            -0.10757492418071202,
            -0.07893615855485116,
            -0.08132215864754283,
            -0.0887822830395452,
            -0.03605403498951214,
            -0.0029794812403164317,
            0.04795946918012893,
            0.04878909445264917,
            0.10036462217615344,
            0.12102246858981727,
            0.13981577363447245,
            0.19078474632806272,
            0.2006612983165015,
            0.2224734071565593,
            0.17484419408331664,
            0.15368878060134114,
            0.10868466521272332,
            0.09932962167727095,
            0.20432048193934024,
            0.08946214660658118,
            0.09155367563973446,
            0.09090813145947649,
            0.10062198793854255,
            0.15691576259007645
          ],
          "Bias": -0.07890109112636609
        },
        {
          "Weights": [
            -0.21778224223192866,
            -0.24538745137376525,
            -0.18041790019460605,
            -0.11767906827680534,
            -0.14387874903612644,
            -0.174479757369037,
            -0.15805419605112325,
            -0.17751469345817047,
            -0.19534094590090018,
            -0.12817720153348036,
            -0.10583420644066328,
            -0.1351125438547578,
            -0.08930055014801123,
            -0.08256517164977627,
            -0.07172648731237112,
            -0.032075505409430057,
            0.010033751634786942,
            0.045644651834480486,
            0.048725442454084805,
            0.08474498166310669,
            0.11512878368974075,
            0.16391919579760086,
            0.09383426204405527,
            0.07638261775654766,
            0.03688932073769821,
            0.05157530176829149,
            0.10092786565047611,
            0.0231423937165033,
            0.041730082107217924,
            0.044370197317213075,
            0.05827753865858503,
            0.1215186005119373
          ],
          "Bias": -0.18103389109652093
        },
        {
          "Weights": [
            -0.1402285728747681,
            -0.13750418628456557,
            -0.04525338246591028,
            -0.004049328097607928,
            -0.03948645569227606,
            -0.08565953558563151,
            -0.0784323978816238,
            -0.10735719112563917,
            -0.08979658939647976,
            -0.06887062925482569,
            -0.055751490037266975,
            -0.08740614391600107,
            -0.011538485102459098,
            0.01971387272994918,
            0.039921139709305574,
            0.042738746549317363,
            0.10598247779476028,
            0.13402080119498871,
            0.14587536291280678,
            0.17260835839942543,
            0.1878924930325763,
            0.21376924378987622,
            0.19664903739558148,
            0.1432714666113575,
            0.12126959926632806,
            0.12419001516346388,
            0.19601205954512704,
            0.10630911370252381,
            0.09799931092724093,
            0.09711364300859061,
            0.11786194577584179,
            0.14473554658052756
          ],
          "Bias": -0.09237397069421802
        },
        {
          "Weights": [
            -0.1371147717430076,
            -0.20661868479923498,
            -0.11986067436621746,
            -0.08047163633336374,
            -0.08720037832178527,
            -0.09244385254416294,
            -0.08588805447947183,
            -0.08492819505155573,
            -0.07361930048594707,
            -0.05715206652601423,
            -0.041877385845134875,
            -0.04563422280968233,
            0.02156067902996363,
            0.02111005589122039,
            0.06884757557209645,
            0.06211650020766171,
            0.08837487705852676,
            0.13897715372403951,
            0.14036197359028668,
            0.17675614546360002,
            0.1941672574363452,
            0.2124871072272695,
            0.1648829880019238,
            0.13980684497295887,
            0.10954002456256721,
            0.13914987872761436,
            0.1760264491490775,
            0.10951929581800858,
            0.1132409018791628,
            0.13374075871816293,
            0.12271104601197862,
            0.17785915493236015
          ],
          "Bias": -0.11545245990168415
        },
        {
          "Weights": [
            -0.12882767921998967,
            -0.1136873360885765,
            -0.03707949411095832,
            0.016303236181462972,
            -0.035951795309734955,
            -0.09801421986189898,
            -0.08668983392590515,
            -0.11824616272044863,
            -0.1273305295921414,
            -0.07727339152096997,
            -0.058898240290498186,
            -0.10639722863015469,
            -0.04306141991413881,
            0.0038150567283973054,
            0.04662936814822145,
            0.051972890246160856,
            0.09700172769693614,
            0.14185617566716957,
            0.12074560711875401,
            0.1811325045142155,
            0.21049851571435998,
            0.23846143341827533,
            0.19345725381689116,
            0.14882845621670995,
            0.09612165994056124,
            0.12014454028582634,
            0.2173476844708657,
            0.1038654264947673,
            0.09656554452343763,
            0.09100901055968545,
            0.1078624892822763,
            0.14283524421865731
          ],
          "Bias": -0.07516979252303481
        }
      ],
      "LayerType": "Dense"
    },
    {
      "Name_of_activation_function": "Leak_ReLu",
      "Neurons": [
        {
          "Weights": [
            0.048648819697564086,
            0.05527506625328246,
            0.03726535040806938,
            0.017044679023567343,
            0.01588719328606467,
            0.009964013348006983,
            0.019527432696984915,
            0.019114655212683292,
            0.017841193249040887,
            0.05862749496386984,
            0.07326117476513277,
            0.05862945177968229,
            0.066896631714363,
            0.08243451730013873,
            0.09958752237900924,
            0.11261606106918602,
            0.1548563029476688,
            0.16278792109318246,
            0.18715988533879818,
            0.22301828211926383,
            0.22355790154859287,
            0.24965968653885293,
            0.2610220250767314,
            0.23444468146765884,
            0.2453930226372216,
            0.21285027929715658,
            0.26195778987882046,
            0.29464071249132995,
            0.28155031020861726,
            0.2745388176313266,
            0.26592709831535244,
            0.29972731401996905
          ],
          "Bias": 0.006357138739862053
        },
        {
          "Weights": [
            0.04468267717836079,
            0.053428093190550335,
            0.0376250472302446,
            0.030501542326505197,
            -0.004951024800615482,
            0.0071100844912863,
            0.018083953485321592,
            -0.005654939206379501,
            0.004497298280967246,
            0.043314909883495734,
            0.052047006089125485,
            0.06978162438953087,
            0.08173122798446612,
            0.07554285598609832,
            0.07761859538256619,
            0.11824715741013286,
            0.11733670736152105,
            0.1271742731595541,
            0.17819670622969117,
            0.19471836498237433,
            0.22349692890345835,
            0.23110969656641445,
            0.21441597476335242,
            0.22723062756229195,
            0.21714596152043406,
            0.22528280395984587,
            0.24742133777335645,
            0.2763442694838523,
            0.23980694126278498,
            0.2460297865419735,
            0.26357087291137465,
            0.2704138168078919
          ],
          "Bias": 0.0046523599269160856
        },
        {
          "Weights": [
            0.039268759333368326,
            0.054295541668775045,
            0.031695120075481184,
            0.02249565222606028,
            -0.01493958250724294,
            -0.021173326086117147,
            -0.024160337685709153,
            0.0055849988789830616,
            0.0005526056271507277,
            0.01550722563571538,
            0.03671216689255808,
            0.030043507202568157,
            0.04867236247680986,
            0.041489562412241894,
            0.059046820887762655,
            0.06095375476167486,
            0.10815516912546658,
            0.11149855336971913,
            0.12707018189582212,
            0.1772272656158102,
            0.18424825839853917,
            0.19468486415490915,
            0.20756905755845179,
            0.18045837239340232,
            0.20371022634020192,
            0.18805384761952562,
            0.22705269767031225,
            0.22643263173463354,
            0.2209408695042929,
            0.24453713937020705,
            0.21990619868757438,
            0.26594200634112886
          ],
          "Bias": -0.001109308298218199
        },
        {
          "Weights": [
            0.03415172265598756,
            0.05546326744404566,
            0.026789299773597838,
            -0.009907582301243374,
            -0.00581460840678022,
            -0.017098791271850117,
            -0.014508238778885761,
            -0.014837969942400154,
            0.0036298709940339445,
            0.02136012537584348,
            0.019895529043380863,
            0.026617238449575094,
            0.02860238571020282,
            0.03760395775064912,
            0.05890258786704303,
            0.05530064488811497,
            0.07663590097138687,
            0.10838495849377115,
            0.12461054565243215,
            0.15858233715125972,
            0.16637240575229567,
            0.16720389355280718,
            0.19808275670379275,
            0.17794198701403063,
            0.19942215308653574,
            0.19336373721891487,
            0.2101722618678337,
            0.23937991945403533,
            0.2107108919068712,
            0.22143565351202596,
            0.22174568155421584,
            0.23873437158966668
          ],
          "Bias": -0.004945092201400905
        },
        {
          "Weights": [
            0.017898625334281208,
            0.05245043949514497,
            0.020284674174094214,
            -0.005873603395973267,
            -0.01909145395972456,
            -0.019038339624374713,
            -0.014995564258789906,
            -0.03284971670926779,
            -0.003059959797944664,
            -0.005740386077342946,
            -0.011552191997576398,
            0.013853448374275046,
            0.01314645901372273,
            0.02603454097825113,
            0.030284097562554655,
            0.04654878649246302,
            0.06187456604669657,
            0.06729107740471853,
            0.12244635149430302,
            0.14182784093408415,
            0.151419794965564,
            0.16217200102840912,
            0.17467175506598925,
            0.15217713898262,
            0.18243245045208906,
            0.16127741734722215,
            0.17585970801823408,
            0.20930035367331817,
            0.2099007465505561,
            0.2145593859791351,
            0.21412395767921227,
            0.21432674514936306
          ],
          "Bias": -0.010302485918901323
        },
        {
          "Weights": [
            0.027073796277637136,
            0.022361253085744978,
            0.02943954346334871,
            -0.004358865559105891,
            -0.010207949995256649,
            -0.02764502146263106,
            -0.0217612019324289,
            -0.008516729134328289,
            -0.021052831057633573,
            0.007955821430735548,
            0.010104982598865513,
            0.0004780606531515798,
            0.019556013730622157,
            0.035327602762007,
            0.029299867196327968,
            0.05440541341058601,
            0.05884553122997951,
            0.07644417828692036,
            0.10398624588198205,
            0.13810402961250678,
            0.16412204375467515,
            0.17040458209527679,
            0.1663140176194473,
            0.15370795145153626,
            0.1836742559379608,
            0.1627910782773232,
            0.17761907737979962,
            0.2254846948494036,
            0.19964533073819757,
            0.19657180259702214,
            0.21121985406820917,
            0.22594347005442442
          ],
          "Bias": -0.011368549195133285
        },
        {
          "Weights": [
            0.02821996625806412,
            0.04408291238354029,
            0.029598966918005953,
            -0.015301601902824207,
            -0.025424951761316553,
            -0.03596752416823405,
            -0.02498710471054904,
            -0.007662506168437853,
            -0.02446759883445297,
            -0.016401482239746745,
            0.0032522863390524433,
            0.005012398247035895,
            0.035222830675698334,
            0.02752434372735787,
            0.03511285489143332,
            0.05366502990090449,
            0.0570036549605212,
            0.07286073005383979,
            0.1159273459587347,
            0.14291865548529364,
            0.14960500625771594,
            0.16902525189457124,
            0.16716301328423225,
            0.1527191638609815,
            0.17249336101510662,
            0.17387525700307682,
            0.19338238873301128,
            0.2080759876968923,
            0.21010536761264742,
            0.20852190105930876,
            0.19513480618574716,
            0.24101283423404068
          ],
          "Bias": -0.010793392972280868
        },
        {
          "Weights": [
            0.021485195183473162,
            0.02707783191736256,
            0.03876381582531879,
            -0.00527495836163749,
            -0.024401262027071127,
            -0.026656122900328767,
            -0.015980062527588643,
            -0.029637083170862735,
            -0.014217231459624554,
            -0.019296430137519104,
            -0.0023978489160462295,
            0.00868529343333815,
            0.03362468618358167,
            0.03475572498781039,
            0.0304161101161659,
            0.039451466692983335,
            0.07770898754038115,
            0.09180710056169353,
            0.11160268864933391,
            0.129969718167364,
            0.1568554348980049,
            0.17239328519910524,
            0.15860893178739585,
            0.1566211610050937,
            0.17602148439545245,
            0.16423156480698572,
            0.1999355453612616,
            0.21855077293543146,
            0.1976402147469825,
            0.19793381655990405,
            0.2113851355053035,
            0.21432517369893725
          ],
          "Bias": -0.009916938945572261
        },
        {
          "Weights": [
            0.030273387822237,
            0.04781143530477951,
            0.027858763496287634,
            0.012417809995449757,
            -0.021359302394242084,
            -0.028362163619714196,
            -0.0055617899703323745,
            -0.016112701068610624,
            0.004913377237343887,
            0.013817920760144677,
            0.013031003226472807,
            0.014363658531584613,
            0.034696449959268565,
            0.028308851840911406,
            0.05378780286601699,
            0.05474111981328388,
            0.06161619212030722,
            0.08336494372745372,
            0.11238919624748485,
            0.1567567981041012,
            0.1676175504530734,
            0.16171548188710114,
            0.1599220904830067,
            0.17348470127797375,
            0.17117371707490195,
            0.16795963020764687,
            0.1862044546384516,
            0.21301131013405633,
            0.2050567156132253,
            0.23247058535529191,
            0.2183460719538493,
            0.2476665482937953
          ],
          "Bias": -0.0066681503365856355
        },
        {
          "Weights": [
            0.023009966949147934,
            0.05437572296522632,
            0.05385027079155439,
            -0.0002918809067282397,
            -0.011339110375608755,
            -0.02275817535837048,
            -0.008175785232896547,
            -0.006247022319246004,
            -0.014890066556280132,
            0.005162197504954941,
            0.018102666661543844,
            0.028905304352302708,
            0.04893889163050672,
            0.03466437613650546,
            0.0413597582310831,
            0.05990144252088174,
            0.09417097595979998,
            0.10250343662788018,
            0.13368446042409957,
            0.157358449216323,
            0.18256649062814986,
            0.18778961934164393,
            0.18836131975884163,
            0.17894099291338128,
            0.18591611383061682,
            0.17296154848175357,
            0.20113223942101896,
            0.22097030903194997,
            0.2195709786207001,
            0.21730589600734945,
            0.2196138229927249,
            0.24420556642492752
          ],
          "Bias": -0.0031702977440581466
        },
        {
          "Weights": [
            0.022840521815960243,
            0.048939644452474736,
            0.028327712653888944,
            0.023710377946409116,
            0.011337734773179314,
            -0.0018572276274330434,
            -0.006275946224276571,
            -0.020857914480776264,
            0.0030919337603154524,
            0.02570133489575262,
            0.030494761099869663,
            0.04010470339872606,
            0.0311624760723911,
            0.06308775956180761,
            0.06768581430186123,
            0.08580254039882124,
            0.07987155767598479,
            0.12043283047282154,
            0.14119150177879486,
            0.16906036003593194,
            0.1782503052031945,
            0.2043809997374323,
            0.1802881276073481,
            0.1881314850455376,
            0.20367608991224592,
            0.18211576077923727,
            0.2200183024065089,
            0.25216188027196285,
            0.21791800580200252,
            0.2419477607474669,
            0.23124228172097688,
            0.2538444403159257
          ],
          "Bias": 1.3551834211861837E-05
        },
        {
          "Weights": [
            0.04845785111274533,
            0.03685151515383657,
            0.04702856030544338,
            0.01670839998584759,
            0.016980099116067952,
            0.007551897906108847,
            -0.0037677529777730115,
            -0.0030999531903614084,
            0.022479599138467758,
            0.02229429056266821,
            0.04752443380658259,
            0.0437263517312856,
            0.03812500254751246,
            0.06511901944593457,
            0.0659281295436839,
            0.07682031712462423,
            0.10927660158382373,
            0.10247513363784774,
            0.161857067209044,
            0.17226518543560315,
            0.19206210209946906,
            0.2111042823961103,
            0.21186854509313657,
            0.19080768460677547,
            0.2165924195552338,
            0.19274034292160017,
            0.2290897309665437,
            0.2539582427503141,
            0.23009121690054293,
            0.25624668922684407,
            0.24839217011540313,
            0.25683301605101516
          ],
          "Bias": 0.0028297376131715176
        },
        {
          "Weights": [
            0.032930695607792604,
            0.04519306044639892,
            0.04835509739982567,
            0.0020777917469809886,
            -0.006712909767476924,
            -0.011772734286219838,
            0.000716619216889502,
            0.0008839974214043124,
            0.02151916981444071,
            0.015012350445060335,
            0.03839437875061816,
            0.0505030451644956,
            0.05866054263203369,
            0.04724618985096275,
            0.084019222806439,
            0.08197680959398754,
            0.10944570888751477,
            0.12768261518975652,
            0.16126834806544407,
            0.1736123473102318,
            0.19347500174232132,
            0.21322561808733081,
            0.21612358399955112,
            0.21087295341168324,
            0.214451305665964,
            0.2104195018604703,
            0.23687292429034154,
            0.2564551154038041,
            0.23618636747917623,
            0.2508756052588173,
            0.23544138653552202,
            0.2666266908745366
          ],
          "Bias": 0.003279086540010279
        },
        {
          "Weights": [
            0.046191468027292765,
            0.05142693250721535,
            0.046325813765847046,
            0.02874395525739639,
            -0.0058752877197424565,
            0.007061800438562162,
            -0.003650760130594564,
            0.003914384545096598,
            0.01593221188266707,
            0.01564010874300284,
            0.042938657915544874,
            0.05169247998196148,
            0.05162161532330293,
            0.06201031616194291,
            0.06558395055083642,
            0.07859195459661104,
            0.09861834836883207,
            0.13633163005500498,
            0.1442759969284049,
            0.18268008010619913,
            0.20004886287092755,
            0.21715765226919959,
            0.2080327287334445,
            0.2130466328589128,
            0.2238066743519978,
            0.2128323959672926,
            0.2239054302106783,
            0.2605219393721671,
            0.2569327172921601,
            0.265844704970688,
            0.2464350969560027,
            0.2807889863651676
          ],
          "Bias": 0.004173833462594625
        },
        {
          "Weights": [
            0.039627088966356395,
            0.037696540246774796,
            0.03928181405646013,
            0.00128727014781429,
            -0.006150440226816321,
            -0.00794322202707683,
            -0.008487012458111596,
            -0.005170110726106725,
            0.019926636910943093,
            0.030843982001156914,
            0.042159570398688624,
            0.05513436153158104,
            0.06274996691924381,
            0.06375736910388949,
            0.07064868928814101,
            0.09269674277657197,
            0.12352932474064678,
            0.13029039315139268,
            0.1500389195082297,
            0.2040563859351714,
            0.21021192006028427,
            0.21901423122426456,
            0.21631846530130602,
            0.1997831633917618,
            0.22281770375282875,
            0.21146116214637836,
            0.22494184422886285,
            0.2587540973201919,
            0.26281166126456507,
            0.25657831228214556,
            0.24202316265328816,
            0.27370476351889855
          ],
          "Bias": 0.004374364484539412
        },
        {
          "Weights": [
            0.02521644431404078,
            0.046007804439572184,
            0.053539708679592776,
            0.018039708454530175,
            0.00492251044167255,
            0.018189683616369877,
            0.01378720068126704,
            0.014510430420450842,
            0.028337673554797577,
            0.03640251898985971,
            0.03412909009108614,
            0.044578987177223965,
            0.057931722258450453,
            0.0818354745535023,
            0.08579000106005437,
            0.11731316780114753,
            0.1249895408109101,
            0.1382952020837531,
            0.16477323953141468,
            0.1868705723102596,
            0.22931725106322579,
            0.23549656816599893,
            0.22141763241030765,
            0.22315937435146638,
            0.21742700014546565,
            0.22590433676339847,
            0.2398364454362867,
            0.2668694232463385,
            0.2458400628727164,
            0.2617529608027359,
            0.2452301495479266,
            0.29567803385153685
          ],
          "Bias": 0.005212433334906967
        },
        {
          "Weights": [
            0.03826428309210975,
            0.05021245492891602,
            0.03145038219193722,
            0.03055767195012331,
            0.0061388494560802205,
            0.013707087372201507,
            -0.012111834111556773,
            0.003926681136194683,
            0.011417578619929149,
            0.04828056268908173,
            0.047290712252025725,
            0.046442649635026374,
            0.05646966771962164,
            0.06251436397471034,
            0.10253065129954643,
            0.11889712127616349,
            0.11930807742529474,
            0.1278446543723302,
            0.18043066065010174,
            0.20057998646292402,
            0.2256291526613209,
            0.23912811151712973,
            0.22421931968478184,
            0.21407924067822962,
            0.21659006901695502,
            0.22721779883523216,
            0.23442953052455578,
            0.27024971848960944,
            0.2465898015615322,
            0.2656167845046252,
            0.27455471046389684,
            0.29088240497459045
          ],
          "Bias": 0.005177943453404546
        },
        {
          "Weights": [
            0.04513907034262002,
            0.044826702981283724,
            0.03762221008798551,
            0.018132229487511035,
            0.004703004426265034,
            -0.008071851914830447,
            -0.010300578492351591,
            0.0023507572045213623,
            0.005702741269768289,
            0.04609415319760844,
            0.03293568874054792,
            0.05038455441283842,
            0.0633409568694812,
            0.07955164125915025,
            0.07949369919038772,
            0.09569297655170808,
            0.1406194068242812,
            0.13833988386307589,
            0.15663998188205777,
            0.18959489435172452,
            0.2158944770698185,
            0.24306808236821628,
            0.2359914547062582,
            0.21587269625616784,
            0.22129077959488558,
            0.20117442573135158,
            0.2316730368035252,
            0.2611208768975648,
            0.25534853120254264,
            0.26116444972244024,
            0.24948878012524942,
            0.2919258871483941
          ],
          "Bias": 0.005039563085745038
        },
        {
          "Weights": [
            0.041309032367010695,
            0.03842229259141882,
            0.03058939653722449,
            0.005390164317899588,
            0.005133976115586779,
            -0.01124344539658992,
            0.017382874771021375,
            0.01885825100511853,
            0.020115192047529817,
            0.04141760500528043,
            0.06442993102389269,
            0.0635943535909202,
            0.0646888804102098,
            0.09298339517015945,
            0.10462078537261357,
            0.10936738717544231,
            0.12076336954854214,
            0.15074304070587113,
            0.15750172076438607,
            0.19716068319085556,
            0.2372786404641807,
            0.2397636407761966,
            0.23474933816512425,
            0.22094988306740773,
            0.23821895931850726,
            0.20866938987290512,
            0.25601892204059606,
            0.263943220833284,
            0.26727549711288123,
            0.28046826783396694,
            0.26126337714213627,
            0.29418818216592213
          ],
          "Bias": 0.005490585513533447
        },
        {
          "Weights": [
            0.04802136317949376,
            0.041606529728297884,
            0.05480414731808226,
            0.006783648346345604,
            -0.002121880464788722,
            0.010323149284731102,
            0.014145711132899723,
            0.022687658174262073,
            0.020492927681765766,
            0.04424911086757816,
            0.06419190178428269,
            0.04505224150284308,
            0.06051555795925169,
            0.09446392838871678,
            0.10192917137454817,
            0.10004152210925538,
            0.1193983507402687,
            0.14494261248269533,
            0.16205598621747352,
            0.22199329653818292,
            0.23681593112130245,
            0.24300964157366128,
            0.24414210845080295,
            0.2392606007109646,
            0.21954277042096504,
            0.21194223942201262,
            0.2598711043389866,
            0.2850363214910416,
            0.26811468037136277,
            0.2764721477714871,
            0.2718640506405725,
            0.2930472584200795
          ],
          "Bias": 0.005851900007387884
        },
        {
          "Weights": [
            0.03279661705936676,
            0.05186884775618121,
            0.04720700391877734,
            0.02633473239409948,
            0.008708776982274919,
            -0.001563248162736697,
            0.01138910318796162,
            0.002828863579755282,
            0.005464992726225135,
            0.031418186228593756,
            0.0456848063644775,
            0.05393028082141184,
            0.060345317218075525,
            0.0687264140265978,
            0.10831017963836272,
            0.11749422751520468,
            0.1416044522612579,
            0.15209402143944437,
            0.16139556067034888,
            0.21905950364687105,
            0.2304367428875351,
            0.2424063412377378,
            0.2407285207308479,
            0.2304260853190847,
            0.24549534833389064,
            0.22060279261145094,
            0.2600125141995274,
            0.2821502508328907,
            0.2558629277614315,
            0.28602403537615134,
            0.2784946175200944,
            0.3050370542191685
          ],
          "Bias": 0.005800542489848091
        },
        {
          "Weights": [
            0.04409190769491466,
            0.04211597684995799,
            0.03192928682021576,
            0.00868920594695735,
            0.023968019240055965,
            0.008852867893020389,
            0.005414554802405333,
            0.0028849708883293018,
            0.006304375474573332,
            0.03478299268110523,
            0.06293730749417836,
            0.06291044941147207,
            0.06194290831851215,
            0.07539987994978406,
            0.09071383796912508,
            0.11602554673470133,
            0.14272558492170276,
            0.13433350800047902,
            0.1634984144997508,
            0.2026813912917011,
            0.22314249860624813,
            0.22320903956068577,
            0.2339245522980243,
            0.21818757477298123,
            0.24349585996805037,
            0.23012556201018458,
            0.2387101175768664,
            0.2822609919484867,
            0.2647870128264816,
            0.2583752892156746,
            0.2516030054568979,
            0.2884503759030019
          ],
          "Bias": 0.005843862583675184
        },
        {
          "Weights": [
            0.052470277117657456,
            0.034535721846223846,
            0.03791111029590219,
            0.017376049265350135,
            0.01950918634768587,
            0.01809550152702104,
            -0.0112147267999924,
            9.417121548722831E-05,
            0.011016544403524692,
            0.03366806252928749,
            0.04258780182608654,
            0.0442942068401311,
            0.07003827518827967,
            0.06878001760775795,
            0.0950162955585612,
            0.115984263473532,
            0.11892416814899809,
            0.13345584265529595,
            0.1857207449473763,
            0.19774339797838592,
            0.23434648553855836,
            0.2306114049659822,
            0.2336712268495297,
            0.21615870021212327,
            0.23210371433480198,
            0.22085895625880722,
            0.25727760896219143,
            0.28682316008972475,
            0.26740097500644644,
            0.262241149930965,
            0.2780652441810121,
            0.28549301958506373
          ],
          "Bias": 0.005842151765079417
        },
        {
          "Weights": [
            0.037793615916253846,
            0.0356879577190586,
            0.03662294931471413,
            0.005457769449328611,
            0.019291606409557713,
            -0.003075759774190517,
            0.013212610283341699,
            0.017655001652026256,
            0.0171770855451966,
            0.028561597352461197,
            0.05027090154670772,
            0.04822354427972354,
            0.08731187361856296,
            0.09118521369492456,
            0.09679702241983083,
            0.11356953172774084,
            0.12051555198024677,
            0.1533559428181996,
            0.16962984886758625,
            0.2173651532086979,
            0.2424076339841756,
            0.23604998144031994,
            0.24760759364071147,
            0.23446112483884338,
            0.23894943661258816,
            0.20818733710485582,
            0.2379480481159087,
            0.2652647932906743,
            0.27815051109076594,
            0.28528672042234277,
            0.2827359994625829,
            0.2839910402656509
          ],
          "Bias": 0.006225802358572992
        },
        {
          "Weights": [
            0.049602780622455066,
            0.059417587792986955,
            0.05256965270328817,
            0.013755572692340824,
            0.00018484143583567342,
            0.01851431683230213,
            0.013391400637419146,
            -0.0007659809824279881,
            0.014592820111212147,
            0.027952121888169253,
            0.06698959378784708,
            0.06051202732788018,
            0.07400788877862025,
            0.07948673151090736,
            0.0874368521872261,
            0.1284880699615637,
            0.14809855138914357,
            0.14167328337175186,
            0.1695773230861685,
            0.2017785688976135,
            0.24514822604441436,
            0.23332179026369224,
            0.22719345516614564,
            0.2231079161050596,
            0.24288329055365301,
            0.21325937058697533,
            0.2631337965641933,
            0.2711973989386823,
            0.27540534372656045,
            0.27291108615525905,
            0.2639235396236643,
            0.28864124528008434
          ],
          "Bias": 0.006349566777866793
        },
        {
          "Weights": [
            0.02805873425449357,
            0.04466042141949905,
            0.05213991183443673,
            0.006461857035042214,
            0.008414235663932781,
            -0.005774808651593248,
            -0.011131350919229675,
            0.020229408211512766,
            0.013126066422864777,
            0.04313738091607125,
            0.04997109603422255,
            0.06460121063691404,
            0.07568086729917063,
            0.06839573287516434,
            0.11465052349146312,
            0.10009344026057448,
            0.14269995128610286,
            0.15458067532451866,
            0.16412273430314175,
            0.22268660833168294,
            0.21997889490967001,
            0.23133099272923577,
            0.2347876236442566,
            0.24488325437099498,
            0.23406359482378153,
            0.23052985986833271,
            0.239985441256286,
            0.2704003701806257,
            0.2639740290230625,
            0.2715512416769556,
            0.276785561632301,
            0.2883366985704726
          ],
          "Bias": 0.0060621135817800625
        },
        {
          "Weights": [
            0.04419113787148167,
            0.044269831628033454,
            0.039975334474826464,
            0.03333025880933753,
            0.021155062135720538,
            0.021906421502150376,
            0.0010467271702140242,
            0.018129528869590072,
            0.008447909286502936,
            0.054108576278841115,
            0.044019453710153526,
            0.0793003065527202,
            0.0855751721326792,
            0.08739091152843348,
            0.08886521745488754,
            0.12654955057885492,
            0.12565952706624228,
            0.1612309688201345,
            0.18978333560716376,
            0.20999381587388627,
            0.24115150106979877,
            0.2462770625001809,
            0.23952162225590523,
            0.23350688398915667,
            0.22584996084398773,
            0.2236274010382287,
            0.24306476156515144,
            0.2729072415369015,
            0.2821354542684333,
            0.27627131621519774,
            0.2800107041476942,
            0.29068861236190335
          ],
          "Bias": 0.006799590298218112
        },
        {
          "Weights": [
            0.03185365902445629,
            0.03680797396404591,
            0.040263556602071704,
            0.01651825046903309,
            0.010485668222827853,
            -0.002141743231595471,
            -5.693801903482203E-06,
            0.008497470995454346,
            0.02339956457193322,
            0.0313361325248362,
            0.043084151190640296,
            0.05492349449473612,
            0.06143239499890216,
            0.09658175369528606,
            0.09026978393938143,
            0.11224489324205204,
            0.1315956541369284,
            0.14285161388575013,
            0.18968296587688607,
            0.21068183189897582,
            0.2477548972284134,
            0.25252357794565544,
            0.24938241165400254,
            0.2454241318730662,
            0.22646321898447974,
            0.21679493033110075,
            0.2604768411210418,
            0.2866351464511116,
            0.2817599186295342,
            0.2735107566049228,
            0.26628123956846994,
            0.3037417678863665
          ],
          "Bias": 0.006154336615746492
        },
        {
          "Weights": [
            0.05417547883846464,
            0.0608152319845312,
            0.05081581049697205,
            0.003677753209278208,
            0.023197529989725033,
            0.017192409915995473,
            0.008315374191092096,
            -0.0019948059059206593,
            0.0191301467809496,
            0.05243845293235161,
            0.04311146236099678,
            0.05168789419066608,
            0.08319030483554612,
            0.08045561605173773,
            0.10758017755345765,
            0.11824264279509603,
            0.1283412357485302,
            0.16089939803568817,
            0.19368098402493972,
            0.2017831112619402,
            0.23750883294515765,
            0.24932409886718035,
            0.2435034406087437,
            0.22021164251951977,
            0.22915303869300546,
            0.2144494402485949,
            0.23983647604985492,
            0.27801349317195545,
            0.27666664504961247,
            0.25890069122004034,
            0.25762835477776974,
            0.28669899973466867
          ],
          "Bias": 0.006826921160378741
        },
        {
          "Weights": [
            0.05109676493162094,
            0.03264694947617661,
            0.04203912721308956,
            0.026444534703470596,
            0.011524384766301216,
            0.0014461805630237871,
            0.0016919473020631118,
            0.01576764369403583,
            0.018659022260371364,
            0.02898145298537129,
            0.044356932665478285,
            0.05404103134094322,
            0.0737820810408135,
            0.08067988604813148,
            0.10250776916322155,
            0.09903692589014107,
            0.12592953401179516,
            0.12873877522336905,
            0.18610877253826774,
            0.20893629318256454,
            0.2167751311485146,
            0.23299184227445802,
            0.23723389478257143,
            0.23271053463229302,
            0.22169811938902856,
            0.2298094910180891,
            0.23764130050319196,
            0.2825220192807869,
            0.2574531996947299,
            0.2839630543425272,
            0.2579684587484725,
            0.30076805579350063
          ],
          "Bias": 0.0063038084437212994
        },
        {
          "Weights": [
            0.024437515484721176,
            0.060913990088706634,
            0.03781957523172544,
            0.025248198630219782,
            0.009745066968802096,
            -0.010775044681700945,
            0.005668234670403349,
            0.016692669537125726,
            0.027289719294506534,
            0.04484896279344471,
            0.041393869178579415,
            0.07413087089987337,
            0.056479924152918165,
            0.08072258558315043,
            0.10926690929721952,
            0.1046544325403791,
            0.1266843602088543,
            0.16125210366220954,
            0.1817347495148601,
            0.20796245412155534,
            0.22173927823665907,
            0.24442798658873016,
            0.2475456170544688,
            0.22931748352995418,
            0.22355257002174514,
            0.20852587754476715,
            0.26523507913378164,
            0.2902011123220037,
            0.25880610205016075,
            0.2722841552312131,
            0.2536015914423281,
            0.2809944554220523
          ],
          "Bias": 0.006156510286322648
        },
        {
          "Weights": [
            0.03412275874127887,
            0.061866695316766286,
            0.050057856107825774,
            0.019940014508684607,
            0.025866283862985662,
            0.0075001967939841265,
            0.0027889241112536616,
            -0.0020125752304658356,
            0.03299823313647543,
            0.026648152503105205,
            0.06678204448769055,
            0.07444596749635102,
            0.08129501723020949,
            0.09014552192717933,
            0.0987796006676882,
            0.12849421554616078,
            0.14884265385832177,
            0.14528683662377717,
            0.1846104170641158,
            0.2137778944468906,
            0.23281438019002285,
            0.25143683999691185,
            0.2529189916333318,
            0.23108741538487512,
            0.24706933399634376,
            0.22888061286775238,
            0.2709369905200247,
            0.29550772770866657,
            0.26549389643075216,
            0.2886195668839858,
            0.2836684546159079,
            0.30934225157689504
          ],
          "Bias": 0.006986000225004887
        }
      ],
      "LayerType": "Dense"
    },
    {
      "Name_of_activation_function": "Leak_ReLu",
      "Neurons": [
        {
          "Weights": [
            0.21027828825306627,
            0.15956247521909042,
            0.1511146070005324,
            0.11895840903380776,
            0.12455010841355293,
            0.12293207235401685,
            0.13353102093496566,
            0.13534204412484752,
            0.131426387905462,
            0.1444016880018569,
            0.16168518348986774,
            0.1694559179375956,
            0.17692180339403832,
            0.20457693699574003,
            0.19640854022491838,
            0.21035544142392432,
            0.2288913948008629,
            0.24443211891368324,
            0.25999223132560645,
            0.27851030699501433,
            0.28393684511851025,
            0.31064785915849424,
            0.3171760045838611,
            0.3420957202273265,
            0.32435284689891825,
            0.3368579258757856,
            0.34616440175448326,
            0.35449609980854746,
            0.3751601716106481,
            0.38195771317407795,
            0.3895503111667295,
            0.40423795446004507
          ],
          "Bias": 0.2562202861523096
        },
        {
          "Weights": [
            0.21201341767255624,
            0.15860136560264085,
            0.13878920558975594,
            0.12036502587826817,
            0.12520342870317863,
            0.1102482367328348,
            0.11061271004670492,
            0.13277983675024524,
            0.12109656885665011,
            0.13067127821023278,
            0.13978942313089282,
            0.15783172367182402,
            0.16636028316518128,
            0.20438058717475557,
            0.2056880343868902,
            0.2300090956805085,
            0.2533710414993989,
            0.2571577950559337,
            0.25351487665358685,
            0.2841713435407303,
            0.30394995450638596,
            0.2953785533959057,
            0.30644399108267645,
            0.33432842287554804,
            0.3519420976947217,
            0.34392129616280165,
            0.36764491463566534,
            0.3804715418603645,
            0.37239065180176995,
            0.39136807125974804,
            0.3974186906054294,
            0.40752947016276386
          ],
          "Bias": 0.2538499240173999
        },
        {
          "Weights": [
            0.16988645770460029,
            0.11586365667530946,
            0.09985798201943939,
            0.09448189100892865,
            0.06795525487976851,
            0.06738541094095221,
            0.08167549742006071,
            0.08638652625452321,
            0.09579414780511504,
            0.1070706490198912,
            0.12092876528124416,
            0.1288843951698706,
            0.1401011158091146,
            0.1491707585539625,
            0.15943214414565632,
            0.16868200464188157,
            0.19537416099093816,
            0.2006548611959032,
            0.22241049714521605,
            0.24894754829156887,
            0.25917295061482787,
            0.2713111144760384,
            0.2712218892855158,
            0.2893096388658491,
            0.3112032966880716,
            0.31644368190847394,
            0.3215033472763012,
            0.3218236764902764,
            0.3476611009005783,
            0.3256746352907642,
            0.34064306196262367,
            0.3708483259270814
          ],
          "Bias": 0.2160808496269353
        },
        {
          "Weights": [
            0.1572329206273202,
            0.1213774612605936,
            0.07111558413127429,
            0.06688187784882128,
            0.04224353343248156,
            0.04629792922187268,
            0.07142008848243295,
            0.061662557619631665,
            0.07695864802655843,
            0.07819297433435592,
            0.08891890308036836,
            0.1147117453956736,
            0.12635500475429573,
            0.12289786103456138,
            0.15547398539607526,
            0.15776397671816803,
            0.1840772416210335,
            0.2001229404727287,
            0.20489984783228715,
            0.2150696335336447,
            0.23757102835221722,
            0.24938258994743193,
            0.27070222977149017,
            0.2530416659772871,
            0.2777598824532481,
            0.29246181786286546,
            0.3114250943044145,
            0.3106074293298142,
            0.30786460794711556,
            0.314036075894294,
            0.33428527977314665,
            0.34121972552857904
          ],
          "Bias": 0.19852268295502495
        },
        {
          "Weights": [
            0.15327500314744455,
            0.09794518525639145,
            0.0902337623947339,
            0.05878187170435863,
            0.07009116001809075,
            0.060873859089483805,
            0.06657273479573297,
            0.07638883262379456,
            0.07102317301993437,
            0.09060134402339147,
            0.09429380431779044,
            0.1106284894729686,
            0.1254340637634289,
            0.13600554979842655,
            0.14432464710803664,
            0.15952728478748948,
            0.19146297124760697,
            0.18647453462885466,
            0.19946111429516034,
            0.20794685173949545,
            0.2417286437801392,
            0.2467061685581794,
            0.24367905320338185,
            0.27239226601326344,
            0.2692922932215885,
            0.2935808439946508,
            0.3071346147379696,
            0.31790174924146564,
            0.3228346333764948,
            0.31898319128374936,
            0.3382051549278426,
            0.34902646885775285
          ],
          "Bias": 0.19959215172854386
        },
        {
          "Weights": [
            0.10576177818856525,
            0.05200358560431553,
            0.032913323616374,
            0.03497068268051836,
            0.024319122207396748,
            0.006469230105233561,
            0.00027233021861817,
            0.034869737624943595,
            0.03941288523247541,
            0.03200099806480119,
            0.06086400568870261,
            0.07791790619566007,
            0.06772341740386624,
            0.09749980687277379,
            0.0981168290065643,
            0.1353989337732662,
            0.1318250645797606,
            0.14009435701938172,
            0.17122815768515065,
            0.17956241992666733,
            0.2038073792129822,
            0.1919804306140533,
            0.20460841507429492,
            0.24212842457033376,
            0.2509889058307726,
            0.231797688017585,
            0.2628685509646563,
            0.2591579649999955,
            0.2687886776035048,
            0.29473675799639737,
            0.29250073371491675,
            0.3054926599464931
          ],
          "Bias": 0.1624472201906973
        },
        {
          "Weights": [
            0.14175420207050932,
            0.08125108833154991,
            0.0771462666989424,
            0.06545155210650562,
            0.04188095616984862,
            0.050764147242295644,
            0.027800498356657176,
            0.03319246381786109,
            0.04731462997066574,
            0.05534688901430379,
            0.061585121102923655,
            0.09408338084969059,
            0.11194902454988559,
            0.11309174454777146,
            0.1338843368979349,
            0.14225357231277538,
            0.17462194518091195,
            0.18635670562589504,
            0.19437198607339745,
            0.20778935086651157,
            0.21817909903068228,
            0.24422240149050978,
            0.2515289923268385,
            0.2518332733234103,
            0.2662850156659931,
            0.27503517982771636,
            0.2696087125214623,
            0.2909985383113146,
            0.29779851607600233,
            0.2992726251127541,
            0.30090486206256156,
            0.3302339396532233
          ],
          "Bias": 0.18565165929864397
        },
        {
          "Weights": [
            0.12904704913977522,
            0.10490866597472112,
            0.06998275235384997,
            0.055308043678653177,
            0.04965533988561554,
            0.03416915485115045,
            0.060829263614054864,
            0.05006396114480593,
            0.05815228025576404,
            0.0589326178850155,
            0.06868899876118238,
            0.09082982256615865,
            0.11453625479158272,
            0.13389373179998443,
            0.12675122290627258,
            0.15768848013716377,
            0.15263652456832633,
            0.17251179387420795,
            0.203849171380327,
            0.215809614512312,
            0.21333393516974103,
            0.2515949497221086,
            0.24836086978649724,
            0.24694394654945748,
            0.25644931866926207,
            0.2619508646079972,
            0.3039581264926255,
            0.2985210645567891,
            0.30016730866668423,
            0.3115210763548451,
            0.32886323908847576,
            0.339598887574802
          ],
          "Bias": 0.19060130770549685
        },
        {
          "Weights": [
            0.1538771003649674,
            0.09737277294009274,
            0.07380984930048753,
            0.07632967014462497,
            0.06049887415893819,
            0.06970186709548677,
            0.05853846915944082,
            0.060220438797939736,
            0.08238953431233695,
            0.07437580066680596,
            0.10391180694923742,
            0.11240335207421466,
            0.1261635741422618,
            0.1329705468212974,
            0.13663810749941896,
            0.17657687699722874,
            0.18006722774591616,
            0.19914848218351258,
            0.20340721595421898,
            0.23325469878626667,
            0.22483944055311028,
            0.24160441818900716,
            0.2525009230791761,
            0.2746862168544242,
            0.27778692005126343,
            0.2962165904838107,
            0.30791326628891247,
            0.3049137213112172,
            0.31210097646550533,
            0.3263880980807439,
            0.3292251562158908,
            0.3263876564160623
          ],
          "Bias": 0.20147113773663644
        },
        {
          "Weights": [
            0.1477104713816648,
            0.12548259951805718,
            0.08451259698885052,
            0.06288250116130227,
            0.0547929850990093,
            0.0579432774176976,
            0.04924887821458555,
            0.053367463057118245,
            0.06630556092157207,
            0.08848212364351199,
            0.0843991164195296,
            0.10190192469119078,
            0.12438749952243935,
            0.1348769411299358,
            0.13702293982390007,
            0.16652271849207897,
            0.18103055525790346,
            0.18608746429703515,
            0.20847633740473626,
            0.23523402940353785,
            0.2318868273622307,
            0.26064306497705314,
            0.25209977789103327,
            0.2574307072872216,
            0.2882985195923885,
            0.2747333003884316,
            0.2984288693144732,
            0.32262285373641386,
            0.3056777626370088,
            0.3386358825597572,
            0.3383239432049169,
            0.3333839946503239
          ],
          "Bias": 0.202508507986614
        },
        {
          "Weights": [
            0.16929676280623565,
            0.10372759934379648,
            0.10185854894557587,
            0.08041841728399582,
            0.06702974005433261,
            0.05743521264698371,
            0.07725132815966441,
            0.052304685296132275,
            0.0782608269125465,
            0.07498154001734547,
            0.09278606350760157,
            0.12444818280055485,
            0.11480898938340445,
            0.14993953031545734,
            0.13871006317536577,
            0.1615057654976788,
            0.17723226766996844,
            0.20397755287518946,
            0.20615005249553797,
            0.2319026291077193,
            0.23812712133873457,
            0.2525130538152526,
            0.2489065311606765,
            0.2862018291931309,
            0.27409658043589613,
            0.2914469147738088,
            0.28915860855207914,
            0.3048367357627966,
            0.3283530839772346,
            0.31294460981357075,
            0.32302956341579253,
            0.3325390617954164
          ],
          "Bias": 0.2059567008114698
        },
        {
          "Weights": [
            0.13348661501297107,
            0.08426610120232432,
            0.08604436387927744,
            0.06145381565885008,
            0.05879178402364061,
            0.051400322378703324,
            0.03970218284177384,
            0.05377108881177047,
            0.0584382738947934,
            0.07887666377874233,
            0.09318507604797431,
            0.08385730749809095,
            0.11134144763860793,
            0.11370297193526761,
            0.14944053591795595,
            0.14754931798672027,
            0.15888118475113575,
            0.17942218779990254,
            0.19663432594678454,
            0.21611690134494918,
            0.21795291692796664,
            0.22447588819062372,
            0.2596496949671665,
            0.26424467432815074,
            0.27467017347329914,
            0.2795239940385375,
            0.2778032188874701,
            0.28716596036849684,
            0.31579928878961594,
            0.30305065110407714,
            0.3099167173870662,
            0.3434532780327402
          ],
          "Bias": 0.19242240284022596
        },
        {
          "Weights": [
            0.1492365175465775,
            0.11527098709031068,
            0.07987606302443406,
            0.07834505110807183,
            0.040395906339638236,
            0.03866068482488975,
            0.04472207003747993,
            0.04658958153220997,
            0.07335364999705758,
            0.07908306869402655,
            0.0909231771918506,
            0.08672681107083655,
            0.1311658322286363,
            0.12862907126080628,
            0.13210865468915273,
            0.149093648024377,
            0.1664861264215607,
            0.1729156465678825,
            0.2038603088445719,
            0.2231369432654115,
            0.2491687664464541,
            0.235208137045691,
            0.2682823836773921,
            0.2591974167180839,
            0.28470306638252124,
            0.2822144510447371,
            0.3059628620677908,
            0.31160453340352273,
            0.3025055959707007,
            0.31638277913243695,
            0.3123105465773509,
            0.3453250454565511
          ],
          "Bias": 0.19937897579309474
        },
        {
          "Weights": [
            0.1358579823299527,
            0.1077075695425429,
            0.06575187298926748,
            0.06095098640356324,
            0.05387526496742168,
            0.042051016446982954,
            0.04953581550314601,
            0.04989193102328137,
            0.05058871415239393,
            0.07957128991826465,
            0.09650027250827183,
            0.10361807348554927,
            0.11912260613896557,
            0.13062584045758668,
            0.15404495212195546,
            0.15982433102245858,
            0.18289850694640383,
            0.17308824695724856,
            0.20649283237109903,
            0.2019664053124558,
            0.23263155975239228,
            0.22703645790149102,
            0.23767915266547857,
            0.2521889544390262,
            0.2895282694315701,
            0.27813881382508765,
            0.2997822123987265,
            0.307833652340193,
            0.31950460824862476,
            0.3215186105351461,
            0.3269616179025623,
            0.3396508269585056
          ],
          "Bias": 0.1971266997856675
        },
        {
          "Weights": [
            0.15142378329948697,
            0.12181818255634544,
            0.09820825962013573,
            0.06830935236376533,
            0.054892172338349345,
            0.052965605572318546,
            0.06178869329963215,
            0.06437272692441921,
            0.07788770930878125,
            0.06671459411262838,
            0.09267360162841311,
            0.09760780877479126,
            0.12369953963564553,
            0.14423272495682357,
            0.14038768237542948,
            0.17270184256066995,
            0.1698201034586364,
            0.1917375630310399,
            0.21413598291210267,
            0.22969598617898393,
