{
  "Note": "",
  "Valid_Loss": 0.27650238385900267,
  "Schema": "[Dense,Dense]",
  "Current_epoch": 29501,
  "Target_epoch": 50000,
  "Mini_batch": 8,
  "Loss_functions": "Cross Entropy",
  "Optimizer": {
    "Name": "Adam",
    "Hyperparameters": [
      0.0001,
      0.9,
      0.999
    ]
  },
  "Layers": [
    {
      "Name_of_activation_function": "ReLu",
      "Neurons": [
        {
          "Weights": [
            0.010574213242556162,
            0.023542998360207457,
            0.019067349901177835,
            0.007488374142826865,
            -0.0017171042552641287,
            0.022097203458255093,
            0.00542679743918468,
            0.006873636710482744,
            0.026296865220105558,
            0.020130580677084037,
            0.0008050711238150167,
            0.011353716394017398,
            0.025748258714068394,
            0.02048350496472937,
            -0.0017748347434546968,
            0.021495572013162788,
            0.001501528737401389,
            -0.0008244151254220876,
            0.014063420203375032,
            -0.0006756446445433538,
            -0.0008008573536666579,
            0.027562204531448396,
            0.00791883964515383,
            0.00017771894628687852,
            0.013654461342541788,
            -0.0001064232044876686,
            0.014446420206905987,
            0.022863056697899835,
            0.014361224413210883,
            0.01488155453025962
          ],
          "Bias": -0.005834153107119051
        },
        {
          "Weights": [
            0.021248680297012556,
            0.02172831798245308,
            0.029614062472690737,
            0.035064516350513934,
            0.009040335017437964,
            0.025529406789514014,
            0.03588084132030152,
            0.03605043724004626,
            0.022008338638195072,
            0.02619276002470134,
            0.026023096029786405,
            0.0023772220488880616,
            0.018944550858297316,
            0.002293440095415242,
            0.024106694019804715,
            0.006499660231876948,
            0.016253219128553837,
            0.018177732612140996,
            0.0060527532185332454,
            0.020406791056161364,
            0.010369205765947897,
            0.0287960461777626,
            0.03065987137953044,
            -0.011447283943059878,
            -0.009095011119017274,
            -0.010060732795656413,
            0.0004015717202544202,
            -0.00493228319691376,
            0.0038717305036848845,
            0.009725825011576775
          ],
          "Bias": -0.008217952640219302
        },
        {
          "Weights": [
            0.016431350603558,
            0.008623171666575358,
            0.015865709039026274,
            0.0012167900813280037,
            0.010074222271670394,
            -0.00012274667508105987,
            0.0012241663334988217,
            0.006194079070248522,
            0.024131566532972205,
            0.021799470603380274,
            0.01505647067184562,
            0.004230627396946091,
            0.01839017171333882,
            0.01951388206002906,
            -0.0016453174041897967,
            -0.007755349182650904,
            0.009542518335580619,
            0.014183780836747923,
            0.02499949402762858,
            0.027188736537630927,
            0.02383649765600452,
            -0.001151133855729592,
            0.003947399426244324,
            0.019556546240927557,
            0.002326325437688467,
            0.006364106385462882,
            -0.004545808400068786,
            0.0018224331559491397,
            0.025713872143984285,
            0.028814181193257547
          ],
          "Bias": -0.003905546388780275
        },
        {
          "Weights": [
            0.007315988004256032,
            0.031195474870965613,
            0.0024472087054664047,
            0.0011284815822486568,
            -0.00698092017651254,
            -0.007847877152594317,
            0.002883267426107472,
            0.00012685363673197415,
            0.007588685294451574,
            0.02336525118894992,
            0.02164151562710753,
            -0.0026557205543010286,
            0.01805701430686264,
            0.015408351895289513,
            -0.0009352930342432943,
            -0.007227525651669563,
            -0.00041286603737711677,
            -0.0030786146416511384,
            0.0020622175058899704,
            0.02084956607515798,
            0.0022988840121611143,
            0.008466680637996715,
            0.011517531758316267,
            -0.0029658332658099146,
            0.01402489008061653,
            0.019396786406882326,
            0.012837507269434018,
            0.016178575966633822,
            0.030545533522166348,
            0.012751827435712619
          ],
          "Bias": -0.002022202003665433
        },
        {
          "Weights": [
            0.027661348372073298,
            0.004603687964220501,
            0.03381174729260582,
            0.006390885787827477,
            0.013894812603308507,
            0.022448896582386607,
            0.021038664372638505,
            0.02725699017792361,
            0.0031337333356683877,
            0.024764343967854745,
            0.029094106532889286,
            0.022043275016965805,
            0.029282402319974865,
            0.005569548508681564,
            -0.002211453617296635,
            -0.0055555150593459,
            0.007446096276066446,
            0.0007503353323880599,
            0.012114280809908163,
            0.010199366238936759,
            0.01679761321503589,
            0.014233115200215763,
            0.04094508053665223,
            -0.012091024567145465,
            -0.0010825472374759912,
            0.016998888328379372,
            -0.013260891487054687,
            0.012044305780659882,
            0.009053032212332612,
            -0.00882029493731481
          ],
          "Bias": -0.008598823815732034
        },
        {
          "Weights": [
            -0.004300089268561889,
            -0.0019050658771382807,
            0.006473008615745424,
            0.024153425472036052,
            0.0092917307205325,
            0.000823750078567724,
            0.012236136098664913,
            0.01896442927931706,
            0.028973046721482803,
            0.004711017465213685,
            0.012591802364096965,
            -0.00024555969588543224,
            0.008875505595880503,
            0.00525469813165984,
            0.023741176271797094,
            -0.0018355173077633932,
            -0.005224559214822094,
            0.008035650967272904,
            -0.005103921244999993,
            0.024330674267582973,
            0.008160920933623797,
            0.022339534830196742,
            0.032559292436951,
            -0.02016265080460533,
            -0.014168668451299611,
            0.0005292147965142465,
            -0.005107019354724628,
            0.0030776274910219183,
            0.002504354801652164,
            0.008184718210379022
          ],
          "Bias": -0.01004816036682488
        },
        {
          "Weights": [
            -0.0023704088233038787,
            0.008806949725015042,
            0.03349285261077638,
            -0.004701705142702078,
            -0.0011327448418912995,
            0.009346156868691903,
            0.01744840972149198,
            0.0076634125449300825,
            0.001679357663153676,
            0.020665349927906636,
            0.01871050910037465,
            0.027273940748752015,
            0.0020943606793569873,
            0.01526432762541729,
            0.01289691962587481,
            0.013467384070689169,
            0.010660103718351239,
            -0.005680383062517282,
            0.020517688812686938,
            0.018491554965733528,
            -0.0001905990400252821,
            0.010432800507535606,
            0.004457982865085154,
            0.008924946147244902,
            0.005592078909669677,
            0.020516534665154147,
            -0.00027158115948047555,
            0.00039725141168988725,
            0.023734690013781562,
            0.015694105954609617
          ],
          "Bias": -0.007470964543586489
        },
        {
          "Weights": [
            -0.0018030141269374572,
            0.01415141061197643,
            0.03715074786307363,
            0.019968049518031623,
            0.029563485110928968,
            0.03166774256150354,
            0.017507233094020507,
            0.006334343781577088,
            0.009794396085372886,
            0.011385777448359195,
            0.034105501726219074,
            0.007334792690315149,
            0.02849066142125677,
            0.00727054461746725,
            0.0065295864572839386,
            0.02238602802950965,
            -0.0021263720487857216,
            0.009577618301758623,
            0.008851950927220053,
            0.02371408075190907,
            0.025241215668037633,
            0.005298486023471145,
            0.01356729305890202,
            0.0017696504572364917,
            -0.0028079122227222942,
            0.0008747689121426043,
            0.011981442053337467,
            0.01000235177360663,
            0.006151325714985771,
            0.005090099523376423
          ],
          "Bias": -0.008836074563162488
        },
        {
          "Weights": [
            0.008748060962427478,
            0.0202949916002117,
            -0.0016304904784585207,
            0.008926472247670344,
            0.011952916942780525,
            -0.005508423712958447,
            0.006741442522364104,
            -0.010523767100775199,
            0.015733187624186015,
            0.01707439534529999,
            0.017477968926839567,
            0.010825958149924176,
            0.02411191681858845,
            0.0061111808236479674,
            0.00678499134442775,
            -0.004385679626752041,
            0.015280232112856663,
            0.008330930844109182,
            0.012862678089630462,
            0.015700808897102004,
            0.017440146169099644,
            0.006880577088533758,
            0.027152163297231732,
            0.009461606854512689,
            -0.008123674632758846,
            0.0030164376757491,
            0.024946735171085362,
            -0.005060617367483045,
            -0.004287086652976979,
            -0.0027176869833959124
          ],
          "Bias": -0.005313341135303764
        },
        {
          "Weights": [
            -0.0045528427418046235,
            0.00484383122017357,
            0.03182524948345334,
            0.007414500252521761,
            0.008500365744824856,
            0.023841969683791937,
            0.0009847927312101052,
            0.024869022581956977,
            0.018038578307204563,
            0.00859729705393341,
            0.0002264934395418014,
            0.003410023264244695,
            0.009528813237400631,
            0.0010544004129676026,
            -0.0012523212033285086,
            0.006435470337094117,
            0.010058645604951203,
            0.019423288920632626,
            0.0036622486232538074,
            0.01407462211253125,
            0.021233976041427738,
            0.010208940782983813,
            0.02801852668059652,
            -0.011849768118309125,
            0.013266361071339028,
            0.0037109936459108887,
            -0.01422439697806365,
            0.005221988568481984,
            0.020007649282833127,
            0.010487211915179468
          ],
          "Bias": -0.00929079622468833
        },
        {
          "Weights": [
            0.011847210052796379,
            0.019870996750466004,
            0.011909531395977148,
            1.5521987836413024E-05,
            0.0005228463232139298,
            -0.0025685891746041814,
            -0.00139939251576273,
            -0.018718155500225948,
            0.005093174127238738,
            -0.007341611287290434,
            0.018293618946569303,
            0.00030029682017788635,
            -0.007731696300021974,
            0.00634027516079335,
            0.014860805105871311,
            0.010813434000661776,
            -0.008158669561486316,
            0.020683169258726677,
            0.025760646414176684,
            0.019340693884827242,
            0.026374128474313148,
            -0.0036194842438225065,
            0.0027657881599406067,
            0.005564041357958127,
            -0.0052219330671328945,
            -0.0005922540795646957,
            -0.004786768010974795,
            0.015373176478861583,
            0.012074095283297325,
            0.011685016464175746
          ],
          "Bias": -0.004545563623546607
        },
        {
          "Weights": [
            -0.004623212419906738,
            -0.006855564357643607,
            -0.014172364093146502,
            -0.03247226947929668,
            -0.005300661924898631,
            0.0033590292525517078,
            0.004265481279086743,
            -0.0025690918447106403,
            0.00915315946955771,
            -0.010331829776267443,
            -0.0005912286369205376,
            -0.015218921604476653,
            0.011936891020915458,
            -0.0046325141456004006,
            0.0029814518093070944,
            0.0074787120658195766,
            0.0035913922363465622,
            0.021831512690644515,
            0.012492083028288688,
            0.02621049513569052,
            0.024394898066817352,
            0.018764212413858873,
            -0.00022513933604266596,
            0.01348482419527551,
            0.012888233411063552,
            0.015077099017067384,
            0.009677951325146062,
            -0.006737292138895647,
            0.008696533745062525,
            -0.0007118603424146662
          ],
          "Bias": -0.006157993721212535
        },
        {
          "Weights": [
            0.01650501282988463,
            0.008822000424619302,
            -0.009506728737171122,
            -0.005324919152637147,
            0.018496355839304496,
            0.013096000498225048,
            0.016528984863968147,
            0.0033076146025521986,
            -0.00039395370013285084,
            0.01838334653346471,
            0.014641316667097563,
            0.017886942984130367,
            0.019971898466760365,
            0.020718622357001396,
            0.029867251921275834,
            0.008946036946834214,
            0.005874996639692254,
            0.0027278342426880456,
            0.0026048038057177505,
            0.013028985889226614,
            0.008150443354247052,
            0.02215395555099673,
            -0.006946498288966398,
            0.03144401318619577,
            0.02427391488648939,
            0.026411158996738283,
            0.006127836541123317,
            0.035310521533751,
            0.015015915527837657,
            0.023458067073310086
          ],
          "Bias": 0.0031498489422032605
        },
        {
          "Weights": [
            0.022948434947728722,
            0.019911154306774936,
            0.029640471327009237,
            0.018905183402610905,
            0.017573762926773644,
            0.009449806474629245,
            0.008475550738937236,
            0.0056410383237126506,
            0.021141878785291692,
            0.005846706782306794,
            0.026193858311661468,
            0.0005334649211494213,
            0.002686276701476789,
            0.01634036374095158,
            -0.007411529391778655,
            0.008961026141446364,
            0.019006989787971287,
            -0.0065586972186739015,
            -0.0016433928059456963,
            0.024431080297707766,
            0.024411965915058113,
            0.00889859513132789,
            0.02125898948467811,
            -0.02069680698819049,
            -0.0015216497696255136,
            -0.009105386577579823,
            0.008378980343156518,
            -0.0034727794742340336,
            0.0003992072772723206,
            0.0028984597823888754
          ],
          "Bias": -0.011401530570446194
        },
        {
          "Weights": [
            -0.004459157862227858,
            0.002330751536823354,
            -9.537088384681197E-05,
            -0.001021709521528136,
            0.015377518028643318,
            0.022625417378722767,
            -0.0006496555993843034,
            -0.00562242616246989,
            0.007239684275821557,
            0.022902403449752036,
            0.020401461295610473,
            0.0005618071359380434,
            0.013635551352859564,
            0.026382428710812186,
            0.025229541619446016,
            0.0017716623091758293,
            0.0070141770932592344,
            0.013460190621621466,
            0.01872983403183554,
            0.017215146643367315,
            0.026423190208982216,
            -0.0026359031163439577,
            -0.007943017445025515,
            -0.0030519441626628107,
            0.016457730425013084,
            -0.0047397484730101035,
            0.023972236411691113,
            0.00912120549126619,
            0.007629948527401942,
            0.016890905524534847
          ],
          "Bias": -0.0052627620695525484
        },
        {
          "Weights": [
            0.009350022077063916,
            0.0017001271429820416,
            0.010560497026617105,
            0.02060500021486295,
            0.027910791248707312,
            0.020085748331467722,
            0.02667697654341932,
            0.012695508730643559,
            0.024588014191315753,
            0.024251939060428714,
            0.03158690874703855,
            0.02166969886805984,
            0.004639752745173243,
            0.0038562760531309368,
            0.004670838669079452,
            -0.00589300807405691,
            0.01827771326253159,
            0.0013753677804267076,
            0.004900271504868809,
            0.02186523112882176,
            0.017610171164209574,
            0.0078521303019711,
            0.020334427210274654,
            -0.018237763603618628,
            -0.0005164338351872294,
            -0.0027584633325888953,
            0.0035539884467473914,
            0.007246937684032712,
            0.005055993001304069,
            -0.005066629912425893
          ],
          "Bias": -0.01054161424495658
        },
        {
          "Weights": [
            0.011958423778731339,
            0.002726980804444325,
            0.006366161185555155,
            -0.005560578241325178,
            0.005515091402313254,
            -0.010465422261884126,
            0.010547022294871563,
            0.007935579363620932,
            0.017964251920943884,
            0.003110086173025756,
            -0.00701665911861428,
            0.011860182447549153,
            0.007783599916528406,
            0.009490363481620146,
            0.007662548588262067,
            0.023734261595538736,
            0.018090387265405496,
            0.02391678118613673,
            0.015161390795962465,
            0.018664340840050347,
            0.024912289038854046,
            0.00923477300932401,
            0.0022223156838586736,
            -0.002016716117349443,
            -0.0017616861803790508,
            0.022365523597308354,
            0.011522150575818797,
            0.010797339702139037,
            0.025176661669769344,
            0.02285893117693338
          ],
          "Bias": -0.002782421154875417
        },
        {
          "Weights": [
            0.013056627350303433,
            0.016887065470370406,
            0.006638222963817554,
            0.006812106574397896,
            -0.007478310400525955,
            0.022921445512033345,
            0.007041217035854043,
            0.02150752804477308,
            0.019449992987627885,
            0.010271927426415386,
            0.023351165251071275,
            0.012540389079071585,
            0.013147959323715604,
            0.006466202600916555,
            0.01746341994591113,
            0.00016737798593022884,
            0.014382312883800803,
            -0.0010783257729573275,
            -0.004779638125291564,
            0.0003220001242661073,
            0.02732259034077416,
            0.01425629755777257,
            0.011589894537859457,
            -0.004994636277484302,
            -0.019712632056647646,
            -0.0010528411942101882,
            0.0037570832169462162,
            -0.015010951863405815,
            -0.016954456135954043,
            0.0015008286658914057
          ],
          "Bias": -0.015321140648167997
        },
        {
          "Weights": [
            0.02607452364971277,
            0.02120709818749675,
            -0.007994451376672101,
            0.011894374210949249,
            0.0065664857095741195,
            -0.013408625546161375,
            0.010745815527611386,
            -0.01244271523107187,
            0.013373725811298977,
            0.018802209617730218,
            0.01172031537012832,
            -0.004224781795091815,
            0.015609213088899712,
            0.007126879833066609,
            0.033327029542888846,
            0.013394097728634858,
            0.019037982257685604,
            0.018229267068874316,
            0.0032221781003180703,
            0.012408709106770563,
            0.007937529448606666,
            0.02891877139372514,
            -0.006789487922422042,
            0.0248727576519651,
            0.00404323586112352,
            0.003048037900213307,
            0.021772930716575416,
            0.005993754871194834,
            0.004377381557941339,
            0.034644588501620444
          ],
          "Bias": 0.0015237842658913025
        },
        {
          "Weights": [
            0.019367029670591143,
            0.004817313452239747,
            -0.012865206245985849,
            0.0073542791341796665,
            -0.01148747542232903,
            0.0015610689828989368,
            0.006420775529749098,
            -0.003120795199605687,
            0.0035370115895572373,
            0.008198118558393959,
            -0.000520704964278479,
            0.0006582354048932709,
            0.01724366374318862,
            0.027876463470226827,
            0.028394575084745386,
            0.007222957173648382,
            0.00670915869090907,
            0.025537506335434022,
            0.02358418549086203,
            0.016915169610990627,
            0.013279737211523396,
            0.007890383739206728,
            -0.006393766983261454,
            0.018268242446487854,
            0.03136215629558277,
            0.019721577522945795,
            0.03544798566697613,
            0.0075119911015289215,
            0.012153273739747115,
            0.006795797920498508
          ],
          "Bias": 0.004311664132699889
        },
        {
          "Weights": [
            0.022275796810680763,
            -0.0003133214811973557,
            -0.014714929150760716,
            -0.003666264640146257,
            0.011397373573690176,
            0.006330753852342543,
            0.013420552502985319,
            0.010994951770659553,
            -0.006188111484444732,
            0.0025691172952478497,
            -0.00010079779316433214,
            0.0035162740076860083,
            0.006929690121441813,
            0.004593791608344518,
            0.0027538325953039445,
            0.02916449301426077,
            0.030904094745896442,
            0.03180888893869229,
            0.007652491363328158,
            0.02306315739471189,
            2.825559192696049E-05,
            0.0018383024442196814,
            -0.004734456551260849,
            0.033412456863313754,
            0.027885178874871144,
            0.03475629095274514,
            0.01237721139223351,
            0.025630330144427643,
            0.012427591866570026,
            0.028901020780233582
          ],
          "Bias": 0.002184456604832463
        },
        {
          "Weights": [
            0.017580932318717914,
            0.013458160820312337,
            0.012318311562289108,
            0.010248407437283787,
            0.011519749367933601,
            0.010148795042619755,
            0.016158198031561672,
            -0.0013088363857617787,
            0.015869789053033993,
            -0.005374376572454654,
            0.0038008888550325128,
            0.021279674918595753,
            0.009368313117395636,
            0.02953414976113317,
            0.004741955039425043,
            0.03019154465567557,
            0.014321586627279944,
            0.029112759331037016,
            0.01646125881112551,
            0.0016646630599224104,
            0.014902247198555544,
            0.0012107753050615972,
            -0.012518454786073965,
            0.024370546149224813,
            0.023313390085920743,
            0.018832579028630194,
            0.03435158214152977,
            0.030928578596613604,
            0.006966496871588176,
            0.016526517648973067
          ],
          "Bias": 0.000911026920076366
        },
        {
          "Weights": [
            0.023906858504913687,
            0.006594329099656915,
            0.016912133555580043,
            -0.006853269577839432,
            0.014930340319931063,
            0.014507292596767446,
            0.021434452768331808,
            0.024706173452834747,
            0.003116868337814603,
            0.014417532274537535,
            0.010368697180720227,
            0.005231292818943821,
            -0.0008473888451968732,
            0.03270091261528652,
            0.037256551681924516,
            0.017493792877106222,
            0.03223221710383983,
            0.028933230294742956,
            0.008850565609193388,
            0.009832515134827836,
            0.01458263600671234,
            0.025942839537310594,
            0.004864341996378746,
            0.01950268930360449,
            0.02067158924260985,
            0.030153596060171612,
            0.010594197626272717,
            0.03131881545851617,
            0.016553257732959084,
            0.025771746106781065
          ],
          "Bias": 0.005462670423664263
        },
        {
          "Weights": [
            0.01847764168619604,
            0.009070233246474114,
            0.009497096775827156,
            0.010756932742328067,
            -0.005514549685854639,
            0.013002454456024834,
            -0.003695616212286777,
            0.013512123973727317,
            0.01109039149812796,
            0.01337734436042341,
            -0.004077528264864627,
            0.02375935843554302,
            0.018910886705957267,
            0.021286121929243253,
            0.006506544631043502,
            0.01947979126166117,
            0.028975881947996284,
            0.004373438923657073,
            0.028982396574987523,
            0.02895079747080057,
            0.006203818314677998,
            0.028280073515728883,
            -0.006740639164492847,
            0.010463452705452075,
            -0.010877059038610528,
            0.01602482520303193,
            0.002618174124289819,
            0.022950355859217324,
            -0.0051157993033029365,
            0.013804417187951983
          ],
          "Bias": -0.006987919626679577
        },
        {
          "Weights": [
            0.020986819810563613,
            0.025651101636549954,
            -0.00010093564917260053,
            0.005692225808944067,
            0.0069479167436035634,
            0.00596219700775331,
            -0.0077761406318942565,
            -0.0007496388561097409,
            0.010849584422300326,
            0.011059013636608904,
            0.010146629377583469,
            0.011449096541877224,
            -0.006911695275864251,
            0.006924681635838598,
            0.017199382065739722,
            0.03386170442027308,
            0.01067752273596705,
            0.008030076370060235,
            0.03072155162057183,
            0.02474640614143883,
            0.029375100662669205,
            0.01210341566801861,
            -0.015344002345806074,
            0.028074405266849314,
            0.03143650066046517,
            0.013375443878083086,
            0.01886218809158737,
            0.010575964869556745,
            0.03171583563072102,
            0.01857880784089034
          ],
          "Bias": 0.00048194696946959295
        },
        {
          "Weights": [
            0.026915892286249517,
            0.012205748712679045,
            0.00035331751162401016,
            0.015253629370227683,
            0.02036246057962915,
            0.010837659138600622,
            -0.002236950358044135,
            0.011738019748295803,
            0.005341207134145107,
            0.009317896682337196,
            0.01802746272525409,
            0.014673999320926572,
            0.009483071139779906,
            0.029108941262540027,
            0.014147643078734373,
            0.030258691350189562,
            0.02101432419734102,
            0.004853997745108542,
            0.03478348828037977,
            0.032476828894492646,
            0.0036633487640017936,
            0.006738847110669296,
            -0.005819009263284052,
            0.038576453560125346,
            0.025270303259372937,
            0.040490920318460535,
            0.020152029815693997,
            0.014955596410904869,
            0.034412333478185404,
            0.028538787636636666
          ],
          "Bias": 0.004988565026313083
        },
        {
          "Weights": [
            0.01017412706708333,
            0.012014879960571991,
            0.009763308095082687,
            0.010663320354396846,
            -0.008108661179286733,
            -0.001910997913386608,
            0.002625238640642454,
            -0.005443451071559945,
            0.014622797303239257,
            0.013334457201987091,
            -0.0056825124248664595,
            0.011009829282569305,
            0.02260068356615,
            0.017415460500065757,
            0.005619361917257992,
            0.006985769446029926,
            0.024454579573747876,
            0.03149969377367777,
            0.020987627271572853,
            0.008635731299382584,
            0.00771653486646743,
            -0.002295180080871131,
            0.013639047378864328,
            0.005302198704379251,
            0.017327660721422267,
            0.011526337153693502,
            -0.004276130323608848,
            -0.004232895242281166,
            0.009367163658085436,
            -0.004715458236770059
          ],
          "Bias": -0.0046531966651012285
        },
        {
          "Weights": [
            0.02659119481878723,
            0.02117279169267293,
            0.0032035209798197913,
            -0.0031844894945637693,
            -0.00371751161904797,
            0.014184167131967169,
            -0.008011552229100811,
            0.015026694933213668,
            0.023395786383214517,
            0.007232224491916091,
            -0.00014793685885148712,
            -0.00017375749859921354,
            0.022175985753092445,
            0.018990439990533625,
            0.02206086246514238,
            0.03186600421176468,
            0.0071041900102992925,
            0.007405118364709568,
            0.030903961446995608,
            0.0030959112254661074,
            0.010018296595447092,
            0.02653952404023024,
            -0.008068566809300737,
            0.019960645008221936,
            0.02649801619533001,
            0.02871306752005725,
            0.02738662136699735,
            0.010471133450341296,
            0.01826900153517586,
            0.017173775975029688
          ],
          "Bias": 0.004597988472658165
        },
        {
          "Weights": [
            0.010060578537957644,
            0.00980081267024206,
            -0.00952678867196423,
            0.0051822404522302995,
            0.016248982891501323,
            0.0057999949297986185,
            -0.006829563636050759,
            0.02366865882798795,
            0.019093274272919392,
            0.023529944671550892,
            0.020967207088505795,
            0.017241676973601495,
            0.022703720024296704,
            0.011900925215628431,
            0.033466506743743275,
            0.021640291912223497,
            0.014545417483595098,
            0.010452994750487103,
            0.012468801610527047,
            0.02576622780785651,
            0.02785142135468559,
            0.0019843115538967495,
            -0.009169987071580664,
            0.023499860412928328,
            0.02108294629094724,
            0.013758330364642853,
            0.011366510128988849,
            0.024079655228203416,
            0.03229387494256779,
            0.022810956664275878
          ],
          "Bias": 0.004757341695288427
        },
        {
          "Weights": [
            -0.003911460055163666,
            0.01778372543629411,
            0.0012189584640305002,
            -0.004633848954980126,
            -0.0184194134741477,
            -0.012631983482055648,
            0.009472534894037404,
            0.01925463889695893,
            0.020099674386963775,
            0.004279378494137393,
            0.015058205620597764,
            -0.005299882665695503,
            0.014288732483147097,
            0.026450560023072396,
            0.022347818592481476,
            0.0043753832464271565,
            0.02276013244688801,
            0.012905644945685968,
            0.023698822694467114,
            0.024978780840013974,
            0.016924815970711177,
            0.010010929887650856,
            -0.010338840508722287,
            0.014603297075712092,
            0.008884687076082125,
            0.0020544684069731226,
            0.017873584371390312,
            0.0072783688121559175,
            0.0008688894991024683,
            0.017101188934545947
          ],
          "Bias": -0.002565207465351114
        },
        {
          "Weights": [
            0.012679762947318698,
            0.010986583193228061,
            0.014669649172811054,
            0.0044949268640338425,
            -0.002406145821142319,
            0.008424124316901588,
            0.019415834382133134,
            0.00890707822621921,
            0.01341007992324239,
            0.0027021080978171996,
            0.020746236693416523,
            0.01363619622430967,
            0.011878092305066723,
            0.03516727005307799,
            0.03665587336009785,
            0.02694992691958695,
            0.02011682829783986,
            0.03537252348092227,
            0.027519329571084966,
            0.0050341653112800505,
            0.03025210347153812,
            0.01868850256790064,
            0.005226405071090351,
            0.014247807340366531,
            0.020455637903313426,
            0.03281780069664836,
            0.027254725042794126,
            0.012963978298862412,
            0.02324678317474656,
            0.016046030176423143
          ],
          "Bias": 0.004149064260208337
        },
        {
          "Weights": [
            0.030601432097904942,
            0.025009495503158025,
            0.008085620026116692,
            0.006270748181620552,
            0.006083626500332364,
            -0.010971151115157986,
            0.0070917701977344936,
            0.006862350877836604,
            -0.0035321095327146266,
            0.025379714075424803,
            0.022874372990494052,
            0.007415018359540517,
            0.02453613113054073,
            0.031710914015615,
            0.014606166661304211,
            0.03028356430866984,
            0.03185604689885533,
            0.011345887321318637,
            0.03450252435269096,
            0.013397573415375855,
            0.030657760118078872,
            0.010167981775775,
            0.016600483151191583,
            0.023544805466808004,
            0.041019139681481354,
            0.009051740854131792,
            0.03866251385388999,
            0.03049882791893598,
            0.029911008359934137,
            0.029665074829738253
          ],
          "Bias": 0.004121930734004039
        },
        {
          "Weights": [
            0.02268335216690391,
            0.023367647230028512,
            0.01338476781835987,
            0.011338491593656417,
            0.018084361420387437,
            0.014603616711335126,
            -0.0077309840122258226,
            -0.001785386213984278,
            0.0013240735815330034,
            3.492651977499284E-05,
            0.022068114312673682,
            0.003015435831966473,
            -0.0004133135729561724,
            0.03267586964139989,
            0.024456858675312138,
            0.010361026345683392,
            0.0029303863570706574,
            0.03329001906025396,
            0.01813932166176494,
            0.029578696236785957,
            0.0095457452323633,
            0.022936863236653917,
            -0.0028842470660161127,
            0.02226066280543897,
            0.037855505767397275,
            0.011432853814703579,
            0.02138892579734601,
            0.005819328688748925,
            0.01409681735834234,
            0.011540457838431762
          ],
          "Bias": 0.0031532466787451943
        },
        {
          "Weights": [
            0.02251699628076584,
            0.019454339770091263,
            0.01024574447509664,
            -0.009844869365450726,
            -0.008418518076166925,
            -0.007790409988668227,
            -0.00634688032910845,
            0.012328947209815144,
            0.01328445205131138,
            0.02609785893838653,
            0.015734985219234512,
            0.024508104986085424,
            7.534359015034768E-05,
            0.028302657146248973,
            0.01117129554464308,
            0.015713498226606087,
            0.03508307118449502,
            0.03268693870122213,
            0.028624364492473787,
            0.02535561716330293,
            0.019749849624727058,
            0.027433309282781773,
            -0.013823471166708252,
            0.015922446447148707,
            0.017295914352221064,
            0.022558948414116955,
            0.012424770501181787,
            0.036677477031911654,
            0.03171986269786295,
            0.012376374437484097
          ],
          "Bias": 0.004188152816143678
        },
        {
          "Weights": [
            0.018993712326497242,
            0.006473070148794011,
            0.004589449571280267,
            -0.0019087233527503855,
            0.00838806988274554,
            -0.0005021087040084742,
            -0.005642142507416671,
            0.011504161830542592,
            0.018759482248564066,
            -0.005348230259302912,
            0.006566247056012125,
            0.0016490792089951126,
            0.0237953533446859,
            0.010407890958560173,
            0.0175200341793138,
            0.01993778181563769,
            0.016161745148971177,
            0.02472185292049726,
            0.007592725470290674,
            0.0332542000723176,
            0.020108301733461682,
            0.007628339876756194,
            -0.0065851753724276785,
            0.005192923197948123,
            0.03298863553677212,
            0.03087713758653829,
            0.008941079701381999,
            0.013787690854395752,
            0.013689106652029678,
            0.012618524817209008
          ],
          "Bias": 0.0022198259971425677
        },
        {
          "Weights": [
            -0.007777049855231331,
            -0.006748958794483673,
            0.010355262911889818,
            0.018945134978476014,
            0.011716808039927952,
            0.01321698382780018,
            -0.005305932920410144,
            0.02339009414591291,
            0.020699872786079043,
            0.010215411819864342,
            0.00349794103735871,
            0.009219331700864631,
            -0.002206006358678092,
            0.011521245697037047,
            0.021767987921742515,
            0.0027329527212798404,
            0.0035115110070396797,
            0.02538346412625451,
            0.02254425420381135,
            0.007245181348325546,
            0.011615125899418575,
            0.01906480430659453,
            0.01770132343236316,
            -0.026799276782743017,
            -0.01358902283636886,
            -0.01657128696670741,
            0.006678342792399042,
            0.004306822157867569,
            -0.012705665647755016,
            0.00609102450609739
          ],
          "Bias": -0.013662626641376944
        },
        {
          "Weights": [
            0.014116224809044686,
            0.027220857500244968,
            -9.617293139197502E-05,
            -0.007110388332435615,
            -0.003176083291580079,
            0.018161864199604638,
            0.01676378133153781,
            -0.004805425226922435,
            0.0016867564392713049,
            0.004938161198193131,
            0.0014965664036819199,
            -0.0011445634831600356,
            0.011649569761570347,
            0.00788190200736379,
            0.012296467520127488,
            0.024924645154543634,
            0.0015309167848335532,
            -0.003470389581095717,
            0.021669249350697806,
            0.027506717914082067,
            0.012230048409428453,
            -0.0015952715197255914,
            0.005241290801679983,
            -0.0003103863899145111,
            0.016429891327091897,
            -0.011258266823559212,
            -0.006704293954244251,
            0.00395252476936963,
            -0.006948379576986116,
            -0.004675690999198491
          ],
          "Bias": -0.0076982254062129265
        },
        {
          "Weights": [
            0.019529714943372422,
            -0.0002150344644121874,
            0.03294177070796844,
            0.01389293847421063,
            -0.0032304694722424957,
            0.005341270154771806,
            0.023141027686135573,
            0.01962323695137973,
            0.022026263770470924,
            1.2471492821361798E-05,
            0.018545706269492215,
            0.026498247256981994,
            0.02323860816560455,
            0.015398007887959047,
            0.0061701348809410925,
            0.024038849169142697,
            0.004730677797744651,
            0.003928308649817102,
            0.0029575636472283394,
            -0.004887359717046453,
            0.011951837537869537,
            0.022972459564062186,
            0.01029834688938447,
            -0.027642482448356546,
            -0.02270841399468541,
            0.004658756027126586,
            -0.018620725728709497,
            -0.00045312000623979557,
            -0.005818383423666939,
            0.013601705828925129
          ],
          "Bias": -0.01369157406512811
        },
        {
          "Weights": [
            -0.00543822562928065,
            0.008679407073204547,
            0.0002604339862927812,
            0.002631179712687086,
            -0.010803370571281395,
            0.003529683434598133,
            0.012383154126292954,
            0.01616019949700099,
            -0.009674471413385639,
            0.006464230471605084,
            0.01424695046940292,
            0.01034929595431979,
            0.011268979672222224,
            0.012631322907598691,
            -0.00537374860146212,
            0.008159405729530507,
            0.016780950015750085,
            0.011080775854758439,
            0.007115898244375402,
            0.003110106621712101,
            0.023962275631560885,
            0.013224524760757882,
            0.019741406189005405,
            -0.011385884182958725,
            -0.03247950859859649,
            -0.00712203104633241,
            -0.015275390899182143,
            -0.02177749620781168,
            -0.001868091065743602,
            -0.019816525802136564
          ],
          "Bias": -0.017779128121145005
        },
        {
          "Weights": [
            0.03158878056314475,
            -0.0013487661504955042,
            0.00030774447207286874,
            -0.01742211742845317,
            -0.017615146539617984,
            0.0031623037054566844,
            0.0076158499743176535,
            0.00992845195392653,
            0.006173424148197659,
            -0.007799658594898078,
            0.016313741866748853,
            -0.0037303279780685357,
            -0.007095970587410993,
            0.02964511215062488,
            0.017173849263652934,
            -0.0014991769089242961,
            0.02579207805915808,
            0.008288543620020818,
            0.028487070454016064,
            0.03003672303171132,
            -0.0016296254734694895,
            0.010506532491218004,
            -0.015674866594651976,
            0.013647210091868771,
            0.025613136665465046,
            0.0110679774980971,
            0.021622770777290922,
            0.002026034684105096,
            0.0017601685985999917,
            0.03218709720715554
          ],
          "Bias": 0.0006413357071201924
        },
        {
          "Weights": [
            0.011195695965092732,
            -0.008649793577500562,
            0.004884481841896515,
            0.005976008773223852,
            -0.001462069158276829,
            0.015112070821267835,
            0.009141456864018934,
            0.004728703759370178,
            0.015160675094760387,
            0.0191269705209943,
            -0.004109142457935211,
            -0.00827919809906833,
            0.018397599876599186,
            -0.012364066632083046,
            0.008788521605300897,
            0.007851518774033815,
            0.021107081489716194,
            0.010186190678110925,
            0.018643507385546848,
            0.014371440679155323,
            0.01722020338885511,
            0.025538299267227012,
            0.025403973116246842,
            -0.015588440781015653,
            -0.024464844124606977,
            -0.02718515614876599,
            -0.012567420949423555,
            -0.013928716277336904,
            -0.006586162670885799,
            -0.010364935107384768
          ],
          "Bias": -0.019748765831527203
        },
        {
          "Weights": [
            0.027562936991704926,
            0.0018963236587524952,
            0.003713746973069605,
            -0.008674671922533558,
            -0.00202843657397452,
            -0.013736200518437571,
            -0.011314570027843094,
            -0.01194734103234975,
            0.008108103155812282,
            0.011800721404498254,
            0.0021874420525098033,
            -0.005764787162441555,
            0.015374819731655009,
            0.01349768679684598,
            0.021205036922333265,
            0.03329220720075606,
            0.015609067279084078,
            0.01351983758035441,
            0.026065670483494955,
            0.015239848592417156,
            0.004841796115846883,
            0.02026487363158159,
            0.0077935297765954785,
            0.02886236459114132,
            0.019559269496845014,
            0.013833238667400336,
            0.009447849712018518,
            0.029294740989027946,
            0.03376020280653425,
            0.010162364690110092
          ],
          "Bias": 0.001134891624266978
        },
        {
          "Weights": [
            -0.013867691142091175,
            0.00786851273205318,
            0.011646263749179226,
            0.0015136345531833503,
            0.007978458677289331,
            0.0013663539802752029,
            -0.003657303785322929,
            -0.004862174402489448,
            -0.010974439530579524,
            0.008719883904648878,
            0.0053237356763097925,
            0.014046042133942055,
            0.013232788918796033,
            -0.012980592381455056,
            -0.002733706342230485,
            0.013049576405283978,
            0.0028638951009998847,
            0.01371199396440423,
            0.013517579466307569,
            0.0067547472311863714,
            -0.004527059484378043,
            0.012055223724729322,
            0.022757156530207313,
            -0.011240752421517387,
            -0.023505893149047913,
            -0.004341853948332454,
            -0.017790961649462252,
            -0.022648890474807882,
            -0.0012125546207462376,
            0.0047077439848031005
          ],
          "Bias": -0.02107559985396509
        },
        {
          "Weights": [
            0.006713356252588451,
            0.02663857978559537,
            0.011032006318452093,
            0.011812629255034054,
            0.008814751380567325,
            2.16421063638291E-05,
            0.029559216487365265,
            0.024102616705997438,
            0.0037472374574597225,
            0.004067299498169236,
            0.013141980720049264,
            0.01766130659115988,
            -0.00038445782033744326,
            0.015255008790340443,
            0.01443913250954152,
            0.011888167688055576,
            0.011286790560632734,
            0.01916892990065232,
            -0.005102235652642256,
            0.004980953425079878,
            0.023713131529679698,
            0.01004905008984529,
            0.04392980520309797,
            -0.020191130628041738,
            -0.005888743853137648,
            0.007641088084647279,
            -0.007815784687853463,
            -0.0073048593120753945,
            0.019481994942804122,
            0.013798689791037225
          ],
          "Bias": -0.010322625032320383
        },
        {
          "Weights": [
            0.01754053923372565,
            0.011366808344822107,
            0.02589597243720062,
            0.01588330387329197,
            0.016093190343600294,
            0.02962926322486358,
            0.01870252848205138,
            0.014308865144337863,
            0.006708425010330421,
            0.017733515768372968,
            0.008957216331143046,
            0.01392941043716961,
            0.014120533430888043,
            -0.006073126894037018,
            0.009426853104913051,
            0.015031509087841186,
            0.018410426111698658,
            -0.0038158411421951545,
            0.01511086098581726,
            0.00329867363593561,
            0.010429488570562771,
            0.013945350039450397,
            0.017604652796067728,
            -0.009661090761665114,
            -0.003520576426226198,
            0.0028591630605664473,
            -0.002330089366188726,
            0.007286507897520299,
            0.013355924471336232,
            0.01828880330744478
          ],
          "Bias": -0.010402266697208387
        },
        {
          "Weights": [
            -0.004016836288540268,
            0.011613101268517915,
            0.03061950057866634,
            0.017818172061235087,
            0.01314443164615827,
            0.02107875411044899,
            -0.003551218763849591,
            0.004863517860656066,
            0.0171459063699226,
            0.011965863686101514,
            0.020923780104147936,
            0.01896491795001745,
            0.021026417940014537,
            0.01391761761462033,
            -0.0008386384267756512,
            -0.0031389262650251357,
            0.013040814025987835,
            -0.006390854487580043,
            0.00984047520331252,
            0.0075249494702710985,
            0.004323522917648456,
            0.008447772711946534,
            0.0381710286888264,
            -0.020512985431729087,
            0.009012612494273884,
            0.0009601316580139805,
            0.009423111777411387,
            -0.0051829316669625225,
            -0.012700663267374651,
            0.0036805493096608373
          ],
          "Bias": -0.011336141761007171
        },
        {
          "Weights": [
            0.0075439509733233835,
            0.019092443864241977,
            0.029055374231997694,
            -0.010567777999801922,
            0.004443868190998557,
            0.013912883468479634,
            0.016788081271549772,
            0.013153945275977848,
            -0.0019447775521396053,
            0.012156982083161,
            0.01947853725081301,
            0.018454463353481287,
            -0.0006935320981441928,
            -0.005599056806209641,
            0.022781862015018858,
            0.006420518992047808,
            0.012425487026860681,
            -0.004919890799150796,
            0.01192473201670569,
            -0.005435596520566569,
            0.0017602234664072438,
            0.0005947170111313157,
            0.033000503175829324,
            0.003832115687652942,
            0.000914391580811668,
            0.0196215758478838,
            0.010511003127406028,
            0.0052055310304041525,
            0.016774783123848187,
            0.014097133943799228
          ],
          "Bias": -0.006250537905808745
        },
        {
          "Weights": [
            0.008747670511511355,
            0.005574229314819732,
            0.01354974969538928,
            0.02769100311051656,
            0.02127204201224913,
            0.009723132901633737,
            0.008122992223573539,
            0.010977048587598365,
            0.025400206471808934,
            0.026561727180177377,
            0.014849714889376368,
            0.015969537447046156,
            0.02394098936871477,
            0.003564273121161307,
            0.01919838500826543,
            -0.00026945333322574437,
            0.004373756075084134,
            0.025399834424236895,
            0.018790191858524853,
            0.027381894855323795,
            0.029352952269766384,
            0.0007860745655952309,
            0.04296918577757951,
            -0.003615561107486786,
            -0.000748334935145441,
            -0.0034260861629919807,
            -0.008491756978087902,
            0.0009059286738447562,
            0.012670531117076183,
            0.02024765029421253
          ],
          "Bias": -0.009979740001790055
        },
        {
          "Weights": [
            0.02099011805083117,
            0.010928782049732215,
            0.011579071874713767,
            0.02096059960838534,
            0.01008819639935627,
            0.006621204421381123,
            0.010987955232849768,
            0.011742412368509288,
            -0.002523190358832408,
            0.027915818674344058,
            0.004853673226551639,
            0.007364232908934833,
            0.012947766000688832,
            -0.005646389066755979,
            0.008358234744790196,
            0.008099334012360734,
            -0.0069208554484047596,
            0.018273773910127706,
            0.0217640958731511,
            0.009125130067591334,
            0.0199407339965176,
            0.024369668651969392,
            0.021569538549613288,
            -0.018154904944156412,
            0.005829122839472922,
            -0.011981295845578338,
            -0.006443220566653128,
            0.01656560612764359,
            -0.01391711417310815,
            -0.009610014061409993
          ],
          "Bias": -0.011623557075161706
        },
        {
          "Weights": [
            0.018550407697636814,
            0.0015341516030677052,
            0.024412792725195944,
            -0.006204716314149678,
            -0.010973778390154695,
            0.00921242539303,
            -0.0014545309449126532,
            0.018168733327440324,
            -0.0028132676966212324,
            -0.002258192603372639,
            -0.0025524896917025674,
            0.012877631921237302,
            0.006602335147587408,
            -0.009251960365399612,
            0.013594311900917852,
            0.02283942506207867,
            0.0023706431785084836,
            -0.0008080801976647136,
            0.0005043797156069936,
            0.01818397254954315,
            0.009971794077675624,
            8.24466821271108E-05,
            0.01332249032601712,
            0.016785888353437948,
            -0.002774710918375723,
            0.0015697095585254887,
            0.022043700669307838,
            0.025183730572922086,
            0.011857528604721213,
            0.003016409518602908
          ],
          "Bias": -0.003982047471838349
        },
        {
          "Weights": [
            0.02448600163956835,
            0.024556079079262015,
            0.01843432697978838,
            0.010508710264134953,
            0.011636901956406653,
            0.00554326075010877,
            0.010226110142430175,
            -0.004149958810315596,
            0.018100608243893042,
            0.01096631081554479,
            0.015533970404788858,
            0.0005909023696949562,
            -0.004108153627503677,
            0.006503731951155358,
            0.022116396878457747,
            0.008202586734301813,
            0.008151601974280217,
            0.0060945234940352365,
            0.019434270273373237,
            -0.0009873998501186056,
            0.017733918255125564,
            0.017194484634120336,
            0.006057652043597568,
            0.003573565933719412,
            -0.005453282486818158,
            0.01887501078888536,
            -0.002401792504443297,
            -0.005879507420212416,
            0.009801923329254171,
            0.01683138061876428
          ],
          "Bias": -0.005577714275491198
        },
        {
          "Weights": [
            0.017948299368500172,
            0.020420102362581058,
            0.031187256772834855,
            0.01108742114932568,
            0.012930292514697714,
            0.005983468624191285,
            0.03701265290534753,
            0.035694652255892106,
            0.0061470586939112205,
            0.022744133504848253,
            0.008646106134480578,
            0.030010415285429016,
            0.0026823378812088753,
            0.002891783614197245,
            -0.002854025848725417,
            0.01567987034800743,
            0.006180746523599672,
            -0.00019879827565239206,
            0.0018871502568161115,
            0.0294683297214155,
            0.011082695886306424,
            0.014827773658639274,
            0.022085389365144648,
            -0.013602579678279285,
            0.011137350247775,
            -0.0019723366342886944,
            0.009830658064818651,
            0.02046861363015399,
            0.006985333799492838,
            0.011749504755328414
          ],
          "Bias": -0.0066472567924658775
        },
        {
          "Weights": [
            0.012509404991232001,
            0.027405690170221673,
            0.025801976707103342,
            0.01594922018640817,
            0.028714590309118455,
            -0.00014043672878281412,
            0.0004645034382699233,
            0.031117860013579548,
            0.006435343226797525,
            0.0077018730174986914,
            0.016331470618898156,
            -0.00038102602251849105,
            0.03097947671754046,
            0.013671476640369423,
            0.0176156416365035,
            0.005089863492432282,
            0.012181353258077374,
            0.023692099539395037,
            0.0013820410872537176,
            0.0022253695761365396,
            0.02477721970849481,
            0.0006211771931977422,
            0.0398631805189402,
            -0.018340766783330593,
            0.0031318546716169837,
            0.0008304429216525424,
            0.008871307866363354,
            0.01184151781789556,
            -0.00945645797981887,
            0.013479597932566832
          ],
          "Bias": -0.00984501583079589
        },
        {
          "Weights": [
            0.013056000798209495,
            -0.002172336510552859,
            0.01330449475142769,
            0.0045564649693389265,
            0.020364801571090482,
            0.018000030187696952,
            0.004539875147772942,
            -0.0002946282140102829,
            0.023714010668012823,
            0.00300871606949335,
            0.011074998932779839,
            0.022923766320892682,
            0.006999841547834718,
            0.014735913283948342,
            0.0010732159545616478,
            0.023878247297817564,
            0.019977284563620787,
            0.0021763651317164958,
            -0.005388013882159895,
            0.01938910662060309,
            0.024581269345250237,
            0.018007285574948573,
            0.02289887683077024,
            0.008184229371416787,
            -0.010802453919409703,
            -0.003982910379051073,
            0.007130679374015212,
            0.019447213826606354,
            0.01447585456905074,
            0.009872326706831759
          ],
          "Bias": -0.009018629150977531
        },
        {
          "Weights": [
            0.024353334394329504,
            0.01918481360722843,
            0.03079060790923723,
            -0.0008205187035312044,
            0.01120009999860406,
            0.010015016590346693,
            0.0023208573583575524,
            0.01563563121829948,
            0.001367622313702309,
            0.018177865242602474,
            0.020415226518613255,
            0.0002979663843709367,
            0.005728287720988699,
            -0.0017367379325337008,
            0.011353136435415407,
            0.02181876357709359,
            0.023523096159399057,
            0.009534341461319823,
            0.005004498172733764,
            0.027506558060460724,
            0.005773147594719783,
            -0.0007672870909691746,
            0.004638730705956197,
            -0.0024644946823434983,
            0.013108240982096108,
            0.013703859554084182,
            0.014433582590110825,
            -0.008178402300508153,
            -0.006200488803792696,
            -0.007497006727125431
          ],
          "Bias": -0.006778466354674951
        },
        {
          "Weights": [
            0.020914448978611996,
            0.01681796409551802,
            0.027668457077747028,
            0.016921624762760955,
            0.01021432651300808,
            0.010516818122894284,
            0.02253566034837544,
            0.011541424840105324,
            0.011736084943326789,
            0.018147857791363728,
            0.010274288615068624,
            -0.003793180078546967,
            0.014644378078960338,
            0.020486312533228978,
            0.003999290467059054,
            0.020489090514037227,
            -0.00627633997942928,
            0.010801412637287256,
            0.021527647259659947,
            0.018435489192466147,
            0.004132812621035997,
            0.0007285994158870025,
            0.03374991468233988,
            0.0015518097831916913,
            -0.0016764329245293798,
            -0.014582419158856354,
            -0.011012776347143694,
            0.0028595748402520165,
            0.01435990209249144,
            0.01350222518172769
          ],
          "Bias": -0.009437146050357009
        },
        {
          "Weights": [
            0.008650978641822798,
            -0.0027245832434753714,
            0.012238367399676408,
            0.020512877888210695,
            -0.008484326790688853,
            0.0010356295075782973,
            0.016518025718621137,
            0.0016980515119374119,
            0.01967642362311593,
            0.02268429973839298,
            0.003860532872918875,
            -0.0039465385629652945,
            -0.00434552272822301,
            0.01937403684518757,
            0.00818161163490424,
            -0.008612014020704438,
            0.011400629498788683,
            0.014147696963989811,
            0.021606846329297952,
            0.012927257505667929,
            0.013882937408119411,
            0.022396788034940156,
            0.030627522205823866,
            -0.015395863205452468,
            -0.011502737250968583,
            0.013887843467983683,
            0.01270653450633999,
            0.020077390311809537,
            0.010041980834131272,
            0.018555936972046015
          ],
          "Bias": -0.008144443636029501
        },
        {
          "Weights": [
            0.01748706044755277,
            0.023499667871443326,
            0.031717757519747265,
            0.021004856727225865,
            0.016775728523768917,
            0.026671851915373645,
            0.002490404745910609,
            0.027667641109933337,
            0.004331800345897036,
            0.02210982760182597,
            0.010133308923272381,
            0.005001216102067508,
            0.01962663474811622,
            0.004492229648060009,
            0.009379940401281036,
            0.018323907509268027,
            0.002067753308894565,
            -0.0011666489928884283,
            0.006599086317598554,
            0.000544125256902279,
            0.011302513257906264,
            0.0033711592075415923,
            0.026265638093195823,
            -0.019642605701850214,
            -0.012458537547020582,
            -0.01182483165630247,
            0.0032019940205515554,
            0.01327043983141441,
            -0.0067689214305637286,
            0.014229074139731672
          ],
          "Bias": -0.010133972826300982
        },
        {
          "Weights": [
            -0.004935876392013234,
            0.023870957735937587,
            0.03111963666903135,
            0.026935495259623136,
            0.00402201900659823,
            0.03659636230525102,
            0.02098616234222983,
            0.017752992274578924,
            0.008055593571083918,
            0.025790948616555485,
            0.024261580310788042,
            0.013006712089548839,
            0.02425723642006505,
            0.010863019214824387,
            9.762023321205227E-05,
            0.020662120878011114,
            0.016513801038332016,
            0.022109760264398794,
            0.005117356830163508,
            0.010798469143041667,
            0.013805953134311391,
            0.03095986475158781,
            0.029142762514188736,
            -0.0027469461883823203,
            -0.010758544807684994,
            0.013270375438945409,
            0.016573354713166236,
            0.004191102767681073,
            -0.005774966606102064,
            0.0122657830245678
          ],
          "Bias": -0.008322056548934954
        },
        {
          "Weights": [
            0.014231803228491999,
            0.000999937550321084,
            0.022167861449532374,
            0.03699396831096707,
            0.0043803814836998614,
            0.01179491938723552,
            0.02801077897763395,
            0.0038998091574420878,
            0.033344020741755916,
            0.0345192950188846,
            0.028907038097980238,
            0.01682060880175052,
            0.0013440798011167888,
            -0.007161363388964115,
            -0.004678283589043217,
            0.0026307213113709346,
            0.005913389883377181,
            0.016207364984858825,
            0.016801332893662153,
            0.02118274402610912,
            0.022900901729618436,
            0.025408943297915865,
            0.03735743347598081,
            -0.015126571792433879,
            0.015397633111895103,
            -0.005426302992357055,
            0.01756726822516621,
            -0.005980780320850895,
            0.000390996267769051,
            -0.002538606374620449
          ],
          "Bias": -0.008633018315482202
        },
        {
          "Weights": [
            0.011849534413938526,
            0.024515409674615903,
            0.021423391120545296,
            -0.003081970103018125,
            0.011491111374354117,
            0.003307883535164308,
            0.012356829361880026,
            0.015516313305029983,
            0.014773046382187328,
            0.016464481376192365,
            0.0036101970191713827,
            0.027169922068767383,
            0.011107763356295262,
            -0.007453190869681472,
            0.004236449525581357,
            0.021976561459807552,
            0.02121733817492124,
            0.014237283407548654,
            0.000505055435080713,
            0.013737100864212256,
            0.004148408255915643,
            0.006150866354538182,
            0.009137794742457244,
            0.004762062096991888,
            -0.0068462663714885935,
            0.011749107447626167,
            0.002112839010069034,
            0.001336909914667751,
            0.023255435144668584,
            0.023071597551515947
          ],
          "Bias": -0.0051503794377898305
        },
        {
          "Weights": [
            0.009672592788338364,
            0.0019410157884007593,
            0.03384818009751243,
            -0.005375195248870992,
            0.025549297601733426,
            0.003892070835495201,
            0.0072567957958372415,
            0.010441250061639016,
            0.02644735649811179,
            0.025119030734504628,
            0.001694557611674576,
            0.00633964174366985,
            0.005536738394793823,
            0.01433262600885297,
            0.006777995068114554,
            -0.0040017204084284485,
            0.013016462964297888,
            -0.0026146736081199213,
            0.0019172853269870274,
            0.023890005033618763,
            0.016685714903686543,
            0.013799212500479262,
            0.030276293789362054,
            -0.00031145919070733576,
            0.014459454268168298,
            0.012840806529725876,
            -0.006445359032699504,
            -0.004785421674107348,
            0.010613874809793084,
            -0.006647364665408719
          ],
          "Bias": -0.00991419716153412
        },
        {
          "Weights": [
            0.012126303392676948,
            0.0006663644323250189,
            0.03432334705750187,
            0.004566193723786841,
            0.014099044180540001,
            0.0023522248174697004,
            0.022767570156281048,
            0.017508195509668194,
            0.029679671435760616,
            0.018758635855015575,
            0.00044151891896749564,
            0.026393182564867126,
            0.002344666555438969,
            -0.001006228575931871,
            0.008209144696693755,
            0.02467388240825263,
            -0.004696740908884927,
            -0.0023595906709958587,
            0.026073348208374005,
            -1.256279147271142E-05,
            0.0183059577317023,
            0.02502791623235386,
            0.02012985098467993,
            -0.008208508117108496,
            -0.00011549266473988294,
            -0.005608329962359884,
            0.014186872862590991,
            0.016817567338257768,
            0.013974980962101733,
            0.0018420806830304665
          ],
          "Bias": -0.008820340727394339
        },
        {
          "Weights": [
            0.017463636594571355,
            0.0222199062184719,
            0.009119056566735976,
            0.00905954620856076,
            -0.006983280890558985,
            0.012509807989478901,
            -0.00043122073720751574,
            0.025333904860663833,
            -0.003496656883041738,
            0.0033394950121990587,
            0.004365995538683306,
            0.018656120942462086,
            0.01686381272499207,
            0.022401533772284835,
            0.004064030474787615,
            0.022611134610516136,
            0.003354094686109665,
            0.017570827597173214,
            0.016775316905708076,
            0.022655200516955874,
            0.004539020378120257,
            0.018663949162317783,
            0.021599443198544833,
            0.020785763969426174,
            -0.010223667799314858,
            0.012000604716761362,
            0.01821154867700744,
            0.012733700342984006,
            -0.004009141534586784,
            0.014740038930701096
          ],
          "Bias": -0.005660052038850929
        },
        {
          "Weights": [
            0.010227207033535772,
            0.007369155372477551,
            0.03523439082422378,
            0.011814342848815267,
            0.03603955861759173,
            0.02897218760429347,
            0.006528513745408053,
            0.03345002029080499,
            0.02670836309935628,
            0.01670933908306104,
            0.0023750775014583086,
            0.021200979761498755,
            0.0010568484750784802,
            0.023147721143144895,
            0.005873390670482723,
            0.0020720284467199575,
            0.009743593124743781,
            0.024810624718546438,
            0.0035255372593095734,
            0.00616826978746277,
            0.0007411640490779762,
            0.0036810858231927177,
            0.03033588165138467,
            0.005040696629122198,
            0.004795383177603149,
            0.008725771094505067,
            0.004549123523569082,
            0.004931110881625627,
            -0.009615653984498696,
            0.006134228410659707
          ],
          "Bias": -0.008726985812151592
        },
        {
          "Weights": [
            0.0001352405303516057,
            0.0074695684739035624,
            0.008286921572014634,
            -0.0040501497654944225,
            -0.010700692421778802,
            0.013453299266936837,
            -0.0009643722632264468,
            0.0042748446519261605,
            0.023485890655262857,
            -0.0013784248035282692,
            0.020372124612889182,
            0.00941605676457932,
            0.008922070808931655,
            -0.007006189731881691,
            -0.005546094516584905,
            -0.004611818648734257,
            0.025575202397453027,
            0.014839685859350983,
            0.010162498116135675,
            0.018399463270638714,
            0.0035184219775464157,
            0.01603070592076801,
            -0.001282165041165527,
            0.009127391799204654,
            0.017536830043118776,
            0.020761247800722388,
            0.006136015090615499,
            0.008519382796039312,
            0.02293638953776967,
            0.0007077483782289224
          ],
          "Bias": -0.002739550533823135
        },
        {
          "Weights": [
            0.026988601235397716,
            0.024847497537213548,
            0.006442627929593799,
            -0.0001230368947856432,
            0.01664368075466766,
            0.01196338351109761,
            0.01737360794281475,
            0.0028157784546883123,
            0.002504980260484948,
            -0.00291218852454755,
            -0.00283651620545541,
            0.017376243496367533,
            -0.0014614169671123187,
            0.008580337683251192,
            0.021228034633219577,
            0.016500592472756752,
            0.014653833964730861,
            0.011047645479136161,
            0.011344135161072017,
            0.012630486182336047,
            0.008471384223738629,
            -0.0019080934188587587,
            0.025126670470406395,
            -0.0034462103738511223,
            0.017266214072146693,
            0.007054459088811131,
            -0.0036198492193089088,
            -0.0037282718665610478,
            0.01583541215992333,
            0.004044237837492301
          ],
          "Bias": -0.00813658694190588
        },
        {
          "Weights": [
            -0.0013249842097756866,
            -0.0014467204851157922,
            0.022812771944085104,
            0.009226704144234451,
            0.017283151069952138,
            0.010450948610527396,
            0.004165074984971051,
            0.023403925127996952,
            0.0061978691271157155,
            0.007921410927017605,
            0.02408083026234915,
            0.019292626029184374,
            0.0008160679417772814,
            0.020501219224316282,
            0.0018428682663451336,
            0.024050641413214596,
            0.00901431796076308,
            0.018948455941511476,
            0.02423619198251162,
            0.023250074255056947,
            0.029957938502667612,
            0.023691310688875745,
            0.029869418923449964,
            -0.011504693798959246,
            -0.015977252475823014,
            0.003906145464581217,
            -0.012099240482090748,
            0.01857992225325017,
            0.016975415957707646,
            0.021047579615375827
          ],
          "Bias": -0.00957167214273568
        },
        {
          "Weights": [
            0.002891429838152656,
            0.005688120788461573,
            0.030208786651939063,
            0.004473133243328495,
            0.013801777389779528,
            -0.00010436800242184991,
            0.001249305877680828,
            0.004763571935650146,
            0.016517820238565614,
            0.014054256521190744,
            0.016550102785871417,
            0.01018092104101471,
            0.017406414908939093,
            0.00020598459871010456,
            -0.003926748640245869,
            0.011625449829843674,
            0.0006664325890469833,
            0.0018754749447378767,
            0.010140217249315062,
            0.015352492363772756,
            0.005006740141556908,
            0.013312593304424565,
            0.0324661847420239,
            -0.00653370010738978,
            0.006948414860068539,
            0.003730582848278751,
            -0.01446284874111068,
            0.004693996321944146,
            0.016919864259451623,
            -0.00032048316079868653
          ],
          "Bias": -0.010591030080673101
        },
        {
          "Weights": [
            0.007435353729025274,
            0.01841258193551543,
            0.034275652729912946,
            0.026155218566145798,
            0.006930112818640896,
            0.0253330284953704,
            0.033633299966546175,
            0.022443354932623432,
            0.007351342593774073,
            0.017873632450062887,
            0.025219002928891215,
            0.013124658510785696,
            0.02697834988252935,
            -0.007558311631196601,
            0.020149427549968665,
            0.020681054929855586,
            0.024789846810384607,
            0.005131270753290013,
            0.010833042529301224,
            0.02040676125458059,
            0.030884250634409978,
            0.020447770450818387,
            0.027823519538291003,
            0.014539209427320898,
            0.002893227974187183,
            -0.007212137664110788,
            -0.008055704367522709,
            0.005284354591093807,
            -0.0002469124063392758,
            0.01612586696720521
          ],
          "Bias": -0.008670713123875995
        },
        {
          "Weights": [
            0.014508199776045764,
            0.01670204461521672,
            0.031345639102406404,
            0.005288868291463336,
            0.017648635964063346,
            0.01847894318944738,
            0.0032964945252983704,
            0.018657026103488007,
            0.008857556045644569,
            0.019250094975743336,
            0.012093023146357169,
            0.00904195552549075,
            0.024966071552997224,
            0.014177667571947912,
            0.012431083544330108,
            0.013830084096105798,
            -0.004752249128684845,
            0.016267408770700553,
            0.01387168701386983,
            0.008352843755311338,
            0.014002120694137216,
            0.030601491599755143,
            0.03536524754258188,
            -0.0014025631963609814,
            0.013268322983399696,
            0.0024755631493765923,
            -0.014191436960582334,
            -0.006946984843536229,
            0.018256370890047096,
            -0.010302599870632234
          ],
          "Bias": -0.009397755048806827
        },
        {
          "Weights": [
            0.001928666467538247,
            0.0011898658281503964,
            0.038497985894037676,
            0.01957443171429605,
            0.0043550297155198,
            0.009962794136207584,
            0.007496237987514013,
            0.017022172000731174,
            0.006887949809569864,
            0.002602104463918211,
            0.02714853750695171,
            0.02783859620275706,
            0.028254044967028467,
            0.0182983351937189,
            0.008088814081418694,
            0.001885508634371745,
            -0.0008610931911952767,
            0.015765660777826027,
            0.015354500506585463,
            0.027453530570434814,
            0.009098130044410374,
            0.026049332309949453,
            0.019386045888336027,
            -0.017912979279128285,
            0.007297411539705409,
            -0.004378871691381177,
            -0.009963645285002884,
            0.00928271575581583,
            -0.005388919215849787,
            -0.005202735433309076
          ],
          "Bias": -0.008606029831535562
        },
        {
          "Weights": [
            -0.005298008389110187,
            -0.0005121306498758967,
            0.014406353309174457,
            -0.0049327273206844395,
            0.009543508888058142,
            0.003032582136118308,
            -0.004136005935501021,
            0.006494286234576538,
            -0.003401330489158817,
            0.019049646246044116,
            0.018591689569497784,
            0.008517541842555276,
            0.00939796146628382,
            -0.011744731555302987,
            0.005514843667882153,
            0.005768887961047015,
            0.0010422334505669946,
            0.021063521189358017,
            0.02136003478168139,
            0.012811092456085199,
            0.02487229473486891,
            0.01915072169869637,
            0.022898445849986786,
            0.0033839063552315667,
            -0.022633341372980228,
            0.007125825579437764,
            -0.002312257057211997,
            0.0034422931583351878,
            0.007736060641364025,
            0.017300597294543904
          ],
          "Bias": -0.013458830634931602
        },
        {
          "Weights": [
            -0.0027056100573352457,
            -0.0029127306038181735,
            0.02081520630043174,
            -0.015071053292544196,
            -0.003798209861025165,
            0.01714897423146541,
            -0.010520524006191929,
            0.008233722337315194,
            0.014453614877523576,
            0.004832756806085361,
            0.0014665086484471057,
            0.013059309232604862,
            0.015007462968564407,
            -0.004870662669744541,
            0.020452155179165103,
            0.003075208353326439,
            0.005424907720973637,
            0.02192630161862661,
            -0.004247539105073605,
            0.016205420858410244,
            0.007378190420857938,
            -0.0014106566662953671,
            0.01748892827358256,
            0.011265770803077209,
            -0.007977817855653055,
            0.001339027549950841,
            -0.0054493378523733805,
            0.008106094160634045,
            0.020514785609023468,
            0.015312815762785904
          ],
          "Bias": -0.008969123506938225
        },
        {
          "Weights": [
            0.021954414764728276,
            0.02989727209390561,
            0.037038995369250524,
            0.021145997891046663,
            0.0039956080721052604,
            0.02648913568196797,
            0.00916734207922878,
            0.020484684802728262,
            0.03076209391661845,
            0.0055476576557855406,
            0.018507424934679842,
            0.017863210800480273,
            0.016312787386406548,
            0.022962796271105184,
            -0.0009299763035103356,
            0.0026273291149751165,
            0.015206089672298593,
            0.014509744137263447,
            0.012775079560733022,
            0.029131617472919414,
            0.015545896481252819,
            0.03270011868013507,
            0.038087644648274126,
            -0.004316435142954299,
            -0.006265020391808688,
            0.014306511287728694,
            0.00634579082121487,
            0.0003896050726999506,
            0.009224465192767435,
            0.003927100948418911
          ],
          "Bias": -0.008351635788929819
        },
        {
          "Weights": [
            0.010151760130799794,
            -0.0003858287600221328,
            0.036447507797275056,
            0.02249541505983171,
            0.025281010998472027,
            0.0072394701736683675,
            0.021433836565115022,
            0.023637808910071424,
            0.027904443480285913,
            0.015284433938817293,
            0.029268307791111052,
            0.031188641955750586,
            0.009561109284725396,
            -0.002151973953599846,
            0.006464004041631672,
            0.022143607339983346,
            0.02658266568932293,
            0.005090307530116724,
            0.018261798272517213,
            0.02396906526944627,
            -0.00026489563415134907,
            0.02239762224758886,
            0.04023680231218563,
            -0.015329637466628921,
            -0.005343417240244387,
            -0.014396455235043232,
            0.011103742581714477,
            0.013865799424362004,
            -0.010075841588819981,
            -0.00950608869475893
          ],
          "Bias": -0.010431392629655005
        }
      ],
      "LayerType": "Dense"
    },
    {
      "Name_of_activation_function": "Softmax",
      "Neurons": [
        {
          "Weights": [
            -0.027607027972752562,
            -0.029729969679814245,
            -0.00946677412576483,
            -0.007820572271137463,
            -0.016687829720063555,
            -0.021961511896454122,
            -0.017517481859728064,
            -0.015277331742108144,
            -0.0009265152178221807,
            -0.009987945260529586,
            0.0031682203046869157,
            0.0049240334393892225,
            0.020412132381563256,
            0.0023804404856162214,
            0.007726615427179896,
            -0.00134518800743323,
            0.009569794693641215,
            0.006200116651325925,
            0.015167200067641192,
            0.025015156542118385,
            0.032785182287158224,
            0.04033550337329387,
            0.038862792878878005,
            0.02718966623083699,
            0.03260852011879401,
            0.04596349750814093,
            0.03319325081354042,
            0.0385102697432344,
            0.037819102886382724,
            0.0333452948870182,
            0.03449131134734241,
            0.038598792568839295,
            0.03190295122855428,
            0.03623479120725799,
            0.026064759053995305,
            0.022002861660849686,
            0.024786323059753375,
            0.009778927041293793,
            0.01506151071958615,
            0.02096077267537684,
            0.01096325661703346,
            0.01813006193286199,
            0.011740975204666297,
            0.005254159674372772,
            -0.0028121332853298106,
            -0.008218159000403121,
            -0.005742389553975664,
            -0.010846150338121268,
            -0.02008147150968987,
            -0.00821937880630671,
            -0.0036819952015949924,
            -0.013516137809410963,
            -0.02786443624944981,
            -0.018861593674352667,
            -0.018152618763308922,
            -0.01176433895986356,
            -0.016843848820982096,
            -0.02428480304224486,
            -0.02986632679243571,
            -0.03441942717492769,
            -0.021297233530237387,
            -0.026921480524391833,
            -0.024172339025013534,
            -0.021694304459349636,
            -0.02223613991311994,
            -0.009955825329460717,
            -0.016373054148334225,
            -0.02259632450691255,
            -0.017821573506469242,
            -0.024603353971062742,
            -0.024167632577353125,
            -0.029718547585176964,
            -0.027105495585015123,
            -0.022975949859993055,
            -0.030602443254045583,
            -0.02726129941784568
          ],
          "Bias": -0.037314723978794144
        },
        {
          "Weights": [
            0.03044264005696144,
            0.038815215599671285,
            0.02328804243820267,
            0.02080917085679109,
            0.03531370091021146,
            0.027987090960102365,
            0.019071325852331244,
            0.024856097639790495,
            0.015338216021323849,
            0.02099473788780226,
            0.00955503545493042,
            0.005175319952029355,
            0.0005948448436599457,
            0.007606764686437554,
            0.004817518394192702,
            0.005540991206488445,
            0.009437975974629467,
            0.008096510029781111,
            -0.006544633243615876,
            -0.013419551760064988,
            -0.016104588117092408,
            -0.01576551516024547,
            -0.02597406710239033,
            -0.018962368798751142,
            -0.026244548350490452,
            -0.030206839638652387,
            -0.022456850512253098,
            -0.02591311632348476,
            -0.031658888841585034,
            -0.029787183191096737,
            -0.027398970898957622,
            -0.020024947721432585,
            -0.02401779307456059,
            -0.021382901990577446,
            -0.020134820339033903,
            -0.0028300390080213574,
            -0.004203644864233873,
            0.0016827314736641726,
            0.005633602518665187,
            -0.00021817846852271905,
            0.0031072524417072376,
            -0.0037753286102484443,
            0.003641472928729501,
            0.008699850393663595,
            0.013212277270352735,
            0.013762207972507155,
            0.01956342595847628,
            0.02622666030812561,
            0.02234362086013194,
            0.018450064025309444,
            0.019807713944296295,
            0.0346638804578101,
            0.02825091560265821,
            0.02481215063822819,
            0.026117214772951057,
            0.03241803894603484,
            0.028715066854810165,
            0.03819315707934869,
            0.042153497138151655,
            0.042201808683639944,
            0.03674881232537825,
            0.039451903846891616,
            0.04989699200743447,
            0.028558794751746764,
            0.039327897164461875,
            0.023901279753393952,
            0.022059737743341343,
            0.026096967760462296,
            0.03611097437871321,
            0.03821565047437885,
            0.0369079508573183,
            0.0412582460636099,
            0.03454427557046619,
            0.03104088989549533,
            0.04250232986202107,
            0.04845261147725545
          ],
          "Bias": 0.037314723978794206
        }
      ],
      "LayerType": "Dense"
    }
  ]
}